{"learner":{"attributes":{"best_iteration":"99","best_ntree_limit":"100","scikit_learn":"{\"n_estimators\": 100, \"objective\": \"reg:squarederror\", \"max_depth\": null, \"max_leaves\": null, \"max_bin\": null, \"grow_policy\": null, \"learning_rate\": null, \"verbosity\": null, \"booster\": null, \"tree_method\": null, \"gamma\": null, \"min_child_weight\": null, \"max_delta_step\": null, \"subsample\": null, \"sampling_method\": null, \"colsample_bytree\": null, \"colsample_bylevel\": null, \"colsample_bynode\": null, \"reg_alpha\": null, \"reg_lambda\": null, \"scale_pos_weight\": null, \"base_score\": null, \"missing\": NaN, \"num_parallel_tree\": null, \"random_state\": null, \"n_jobs\": null, \"monotone_constraints\": null, \"interaction_constraints\": null, \"importance_type\": null, \"gpu_id\": null, \"validate_parameters\": null, \"predictor\": null, \"enable_categorical\": false, \"feature_types\": null, \"max_cat_to_onehot\": null, \"max_cat_threshold\": null, \"eval_metric\": null, \"early_stopping_rounds\": null, \"callbacks\": null, \"_estimator_type\": \"regressor\"}"},"feature_names":["Body","Color","Fuel","Kilometers","Engine","Transmission","car_age","carModelBrand"],"feature_types":["int","int","int","int","int","int","int","int"],"gradient_booster":{"model":{"gbtree_model_param":{"num_parallel_tree":"1","num_trees":"100","size_leaf_vector":"0"},"tree_info":[0,0,0,0,0,0,0,0,0,0,0,0,0,0,0,0,0,0,0,0,0,0,0,0,0,0,0,0,0,0,0,0,0,0,0,0,0,0,0,0,0,0,0,0,0,0,0,0,0,0,0,0,0,0,0,0,0,0,0,0,0,0,0,0,0,0,0,0,0,0,0,0,0,0,0,0,0,0,0,0,0,0,0,0,0,0,0,0,0,0,0,0,0,0,0,0,0,0,0,0],"trees":[{"base_weights":[1.1617587E2,1.6133252E2,4.4102398E1,1.1988005E2,2.0435995E2,8.850658E1,3.076599E1,1.15947815E2,2.8753928E2,2.330408E2,1.623966E2,7.1359604E1,1.22990204E2,2.3218414E1,4.690494E1,1.4173181E2,1.0621257E2,2.2412697E2,3.550007E2,1.8629788E2,1.4205942E2,8.476464E1,6.2338917E1,1.376808E2,6.4968056E1,2.1998035E1,2.8414444E1,6.1107273E1,4.5302193E1,1.516562E2,1.3285274E2,1.1004996E2,5.4984863E1,2.5514967E2,1.9617E2,2.0433582E2,1.7245801E2,1.4909366E2,1.3188757E2,7.2933716E1,1.0349717E2,6.5814926E1,4.870778E1,8.05E1,1.4159494E2,2.2816668E1,6.777313E1,2.687026E1,2.0281673E1,3.183458E1,2.7268023E1,6.943692E1,4.8008698E1,4.8900436E1,4.218202E1,1.5244516E2,6.6683334E1,1.3126582E2,1.7848E2,9.071779E1,1.13963196E2,2.2468527E2,2.612832E2,2.1832753E2,1.8056429E2,1.8604758E2,2.173132E2,1.7268315E2,4.345E1,1.3482921E2,1.5333362E2,1.1331579E2,1.3526971E2,1.298613E2,9.138158E1,6.481748E1,9.175E1,1.4683575E2,1.1754706E2,3.725E1,1.24800005E1,8.455E1,6.1307693E1,2.2329828E1,1.9276804E1,4.2240147E1,1.76E1],"categories":[],"categories_nodes":[],"categories_segments":[],"categories_sizes":[],"default_left":[1,1,1,1,1,1,1,1,0,1,1,1,1,1,1,1,1,1,0,1,1,1,1,1,1,1,1,1,1,1,1,1,0,1,1,1,1,1,1,0,1,1,0,0,1,1,1,0,1,0,0,0,0,0,1,0,0,0,0,0,0,0,0,0,0,0,0,0,0,0,0,0,0,0,0,0,0,0,0,0,0,0,0,0,0,0,0],"id":0,"left_children":[1,3,5,7,9,11,13,15,-1,17,19,21,23,25,27,29,31,33,-1,35,37,39,41,43,45,47,49,51,53,55,57,59,-1,61,63,65,67,69,71,-1,73,75,-1,-1,77,79,81,-1,83,-1,-1,-1,-1,-1,85,-1,-1,-1,-1,-1,-1,-1,-1,-1,-1,-1,-1,-1,-1,-1,-1,-1,-1,-1,-1,-1,-1,-1,-1,-1,-1,-1,-1,-1,-1,-1,-1],"loss_changes":[3.8374336E7,1.290656E7,2.688199E6,2.402692E6,4.241952E6,6.114865E5,4.2475825E5,8.91608E5,0E0,2.21428E6,6.769E5,7.97245E4,2.86831E5,1.449225E4,2.256675E4,6.6826E4,5.1017E5,1.657664E6,0E0,1.30022E5,3.6577E4,5.4505875E4,1.688425E4,5.0374E4,6.96675E3,1.56365E4,8.96375E2,8.668156E3,9.20925E3,2.0606E4,1.4875E4,1.74402E5,0E0,1.15064E5,3.20192E5,2.6497E4,3.563E3,6.965E3,5.4E3,0E0,2.199125E4,2.719E3,0E0,0E0,1.513E4,4.3027515E2,2.0839062E3,0E0,2.523E3,0E0,0E0,0E0,0E0,0E0,3.525E1,0E0,0E0,0E0,0E0,0E0,0E0,0E0,0E0,0E0,0E0,0E0,0E0,0E0,0E0,0E0,0E0,0E0,0E0,0E0,0E0,0E0,0E0,0E0,0E0,0E0,0E0,0E0,0E0,0E0,0E0,0E0,0E0],"parents":[2147483647,0,0,1,1,2,2,3,3,4,4,5,5,6,6,7,7,9,9,10,10,11,11,12,12,13,13,14,14,15,15,16,16,17,17,19,19,20,20,21,21,22,22,23,23,24,24,25,25,26,26,27,27,28,28,29,29,30,30,31,31,33,33,34,34,35,35,36,36,37,37,38,38,40,40,41,41,44,44,45,45,46,46,48,48,54,54],"right_children":[2,4,6,8,10,12,14,16,-1,18,20,22,24,26,28,30,32,34,-1,36,38,40,42,44,46,48,50,52,54,56,58,60,-1,62,64,66,68,70,72,-1,74,76,-1,-1,78,80,82,-1,84,-1,-1,-1,-1,-1,86,-1,-1,-1,-1,-1,-1,-1,-1,-1,-1,-1,-1,-1,-1,-1,-1,-1,-1,-1,-1,-1,-1,-1,-1,-1,-1,-1,-1,-1,-1,-1,-1],"split_conditions":[1.55E1,5E-1,1.15E1,1.55E1,7.5E0,5E-1,1.35E1,7.5E0,8.626179E1,1.35E1,6E0,1.95E1,2.15E1,1.45E3,1.45E1,5.5E0,1.45E1,4.5E0,1.0650021E2,1.05E1,1.15E1,5E-1,2.45E1,5E-1,1.4999E4,3.25E1,3.85E1,2.35E1,2.25E1,1.25E1,7.5E0,5E-1,1.649546E1,1.5E0,3.5E0,2.5E0,5E-1,1.55E3,7.5E0,2.1880116E1,6E0,4.5E0,1.4612334E1,2.4150002E1,6.5E0,3.5E0,2.25E1,8.061078E0,3.65E1,9.550374E0,8.180408E0,2.0831078E1,1.440261E1,1.4670132E1,3.25E1,4.573355E1,2.0005001E1,3.937975E1,5.3544003E1,2.7215338E1,3.418896E1,6.740559E1,7.8384964E1,6.549826E1,5.416929E1,5.5814274E1,6.519396E1,5.1804947E1,1.3035001E1,4.0448765E1,4.6000088E1,3.399474E1,4.0580917E1,3.895839E1,2.7414474E1,1.9445246E1,2.7525002E1,4.4050728E1,3.526412E1,1.1175E1,3.7440002E0,2.5365002E1,1.839231E1,6.698949E0,5.7830415E0,1.2672045E1,5.28E0],"split_indices":[6,5,7,7,6,5,7,6,0,7,7,6,6,4,7,6,7,7,0,6,6,7,6,7,3,6,6,6,6,7,1,1,0,6,6,7,2,4,7,0,7,7,0,0,7,1,6,0,6,0,0,0,0,0,6,0,0,0,0,0,0,0,0,0,0,0,0,0,0,0,0,0,0,0,0,0,0,0,0,0,0,0,0,0,0,0,0],"split_type":[0,0,0,0,0,0,0,0,0,0,0,0,0,0,0,0,0,0,0,0,0,0,0,0,0,0,0,0,0,0,0,0,0,0,0,0,0,0,0,0,0,0,0,0,0,0,0,0,0,0,0,0,0,0,0,0,0,0,0,0,0,0,0,0,0,0,0,0,0,0,0,0,0,0,0,0,0,0,0,0,0,0,0,0,0,0,0],"sum_hessian":[1.1792E4,7.249E3,4.543E3,3.694E3,3.555E3,1.048E3,3.495E3,3.611E3,8.3E1,2.109E3,1.446E3,7.02E2,3.46E2,2.383E3,1.112E3,9.86E2,2.625E3,1.968E3,1.41E2,6.61E2,7.85E2,2.79E2,4.23E2,2.75E2,7.1E1,1.934E3,4.49E2,1.09E2,1.003E3,4.58E2,5.28E2,2.441E3,1.84E2,9.29E2,1.039E3,2.81E2,3.8E2,4.56E2,3.29E2,1.74E2,1.05E2,3.34E2,8.9E1,1.9E1,2.56E2,5E0,6.6E1,5E2,1.434E3,1.06E2,3.43E2,6.4E1,4.5E1,4.59E2,5.44E2,4.53E2,5E0,5.14E2,1.4E1,4.15E2,2.026E3,1.62E2,7.67E2,4.24E2,6.15E2,1.23E2,1.58E2,3.79E2,1E0,1.12E2,3.44E2,5.6E1,2.73E2,3E1,7.5E1,3.25E2,9E0,2.06E2,5E1,1E0,4E0,1.5E1,5.1E1,4.65E2,9.69E2,5.42E2,2E0],"tree_param":{"num_deleted":"0","num_feature":"8","num_nodes":"87","size_leaf_vector":"0"}},{"base_weights":[8.144689E1,1.1307644E2,3.0963692E1,1.5899258E2,9.361154E1,6.2252007E1,2.156655E1,1.503155E2,2.3283174E2,7.755425E1,1.19655365E2,5.016486E1,8.65604E1,1.6268944E1,3.2894424E1,1.8708667E2,1.3039156E2,2.0230443E2,2.4925049E2,7.9955925E1,3.8578568E1,1.377714E2,1.03297775E2,5.6885838E1,4.016649E1,9.675143E1,4.6292583E1,1.5409242E1,1.9929512E1,4.3095394E1,3.1744026E1,1.5769322E2,1.9602657E2,1.0619644E2,1.4398581E2,2.1870653E2,1.5957755E2,8.6778076E1,7.136249E1,1.4946979E2,1.20890785E2,1.1162006E2,9.46247E1,5.06775E1,7.1705666E1,4.243662E1,3.1628899E1,5.75575E1,9.942507E1,5.627387E1,3.8661907E1,1.8825272E1,1.4205869E1,2.1172247E1,1.7983221E1,4.9343616E1,3.4309986E1,3.4262196E1,2.9560352E1,2.2835019E2,1.4261708E2,1.992935E2,1.1747761E2,1.1398482E2,9.818531E1,1.159711E2,1.5391986E2,1.15747284E2,8.418447E1,8.484713E1,6.7732704E1,1.2980704E2,1.6205627E2,1.013307E2,1.2423121E2,8.8917175E1,1.1557272E2,8.1758446E1,9.7089325E1,3.7357513E1,5.197461E1,6.1974815E1,8.302119E1,4.3289696E1,3.099884E1,3.228184E1,7.5917773E0,9.291217E1,1.1151105E2,5.7235973E1,1.46675E1,9.4848E0,4.13425E1,1.9951609E1,1.8054705E1,1.5156942E1,1.2916769E1,3.588588E1,3.2526306E1,2.8168427E1,3.1443903E1],"categories":[],"categories_nodes":[],"categories_segments":[],"categories_sizes":[],"default_left":[1,1,1,1,1,1,1,1,1,1,1,1,1,1,1,1,1,1,0,1,0,1,1,1,1,1,1,1,1,1,1,1,1,1,1,0,0,1,1,1,1,1,1,1,1,1,1,0,1,1,1,1,1,0,0,0,0,1,1,0,0,0,0,0,0,0,0,0,0,0,0,0,0,0,0,0,0,0,0,0,0,0,0,0,0,0,0,0,0,0,0,0,0,0,0,0,0,0,0,0,0],"id":1,"left_children":[1,3,5,7,9,11,13,15,17,19,21,23,25,27,29,31,33,35,-1,37,-1,39,41,43,45,47,49,51,53,55,57,59,61,63,65,-1,-1,67,69,71,73,75,77,79,81,83,85,-1,87,89,91,93,95,-1,-1,-1,-1,97,99,-1,-1,-1,-1,-1,-1,-1,-1,-1,-1,-1,-1,-1,-1,-1,-1,-1,-1,-1,-1,-1,-1,-1,-1,-1,-1,-1,-1,-1,-1,-1,-1,-1,-1,-1,-1,-1,-1,-1,-1,-1,-1],"loss_changes":[1.8827096E7,6.464832E6,1.3346875E6,1.347012E6,2.121E6,3.0387375E5,2.09262E5,1.391772E6,6.235E4,2.9215E5,5.60954E5,4.4955875E4,1.3792E5,7.1953125E3,1.1693375E4,1.46988E5,3.98152E5,2.396725E4,0E0,1.67926E5,0E0,1.63214E5,6.335E4,3.4824875E4,4.200875E3,2.319925E4,3.3081562E3,7.6869062E3,7.076719E2,4.3452656E3,4.508E3,1.4106675E5,1.08742E5,1.726E4,2.05347E5,0E0,0E0,1.14303E5,5.8862E4,1.12111E5,1.23055E4,3.61175E4,8.171E3,3.207E3,8.178E3,8.339375E2,7.5939453E2,0E0,9.869E3,3.2135938E2,3.0491875E3,7.4609375E1,1.5635625E3,0E0,0E0,0E0,0E0,1.293125E2,5.43125E2,0E0,0E0,0E0,0E0,0E0,0E0,0E0,0E0,0E0,0E0,0E0,0E0,0E0,0E0,0E0,0E0,0E0,0E0,0E0,0E0,0E0,0E0,0E0,0E0,0E0,0E0,0E0,0E0,0E0,0E0,0E0,0E0,0E0,0E0,0E0,0E0,0E0,0E0,0E0,0E0,0E0,0E0],"parents":[2147483647,0,0,1,1,2,2,3,3,4,4,5,5,6,6,7,7,8,8,9,9,10,10,11,11,12,12,13,13,14,14,15,15,16,16,17,17,19,19,21,21,22,22,23,23,24,24,25,25,26,26,27,27,28,28,29,29,30,30,31,31,32,32,33,33,34,34,37,37,38,38,39,39,40,40,41,41,42,42,43,43,44,44,45,45,46,46,48,48,49,49,50,50,51,51,52,52,57,57,58,58],"right_children":[2,4,6,8,10,12,14,16,18,20,22,24,26,28,30,32,34,36,-1,38,-1,40,42,44,46,48,50,52,54,56,58,60,62,64,66,-1,-1,68,70,72,74,76,78,80,82,84,86,-1,88,90,92,94,96,-1,-1,-1,-1,98,100,-1,-1,-1,-1,-1,-1,-1,-1,-1,-1,-1,-1,-1,-1,-1,-1,-1,-1,-1,-1,-1,-1,-1,-1,-1,-1,-1,-1,-1,-1,-1,-1,-1,-1,-1,-1,-1,-1,-1,-1,-1,-1],"split_conditions":[1.55E1,5.5E0,1.15E1,1.55E1,5E-1,5E-1,1.35E1,4.5E0,5E-1,1.45E1,5.5E0,2.15E1,2.15E1,1.45E3,1.45E1,1.5E0,5E-1,1.5E0,7.477515E1,1.05E1,1.157357E1,1.05E1,9.5E0,5E-1,3.5E0,5E-1,2.45E1,3.25E1,4.15E1,2.25E1,2.25E1,5E-1,5E-1,9.5E0,7.5E0,6.561196E1,4.7873264E1,6E0,6E0,2.5E0,5E-1,7.5E0,7.5E0,5E-1,1.55E3,2.75E1,2.85E1,1.726725E1,5E-1,3.5E0,1.4999E4,2.95E1,4.05E1,6.3516746E0,5.3949666E0,1.4803085E1,1.0292996E1,1.95E1,5E-1,6.850506E1,4.2785126E1,5.978805E1,3.5243282E1,3.4195446E1,2.9455595E1,3.4791332E1,4.617596E1,3.4724186E1,2.5255342E1,2.545414E1,2.0319813E1,3.8942112E1,4.8616886E1,3.0399212E1,3.7269363E1,2.6675154E1,3.4671818E1,2.4527534E1,2.9126799E1,1.1207254E1,1.5592383E1,1.8592445E1,2.4906357E1,1.2986909E1,9.299652E0,9.684553E0,2.2775333E0,2.7873652E1,3.3453316E1,1.7170794E1,4.40025E0,2.8454401E0,1.240275E1,5.9854827E0,5.4164114E0,4.547083E0,3.8750308E0,1.0765764E1,9.757893E0,8.450528E0,9.433171E0],"split_indices":[6,6,7,7,5,5,7,7,5,7,7,6,6,4,7,6,5,6,0,6,0,6,6,7,7,7,6,6,6,6,6,7,0,7,7,0,0,7,7,7,7,7,7,1,4,6,6,0,0,7,3,6,6,0,0,0,0,6,0,0,0,0,0,0,0,0,0,0,0,0,0,0,0,0,0,0,0,0,0,0,0,0,0,0,0,0,0,0,0,0,0,0,0,0,0,0,0,0,0,0,0],"split_type":[0,0,0,0,0,0,0,0,0,0,0,0,0,0,0,0,0,0,0,0,0,0,0,0,0,0,0,0,0,0,0,0,0,0,0,0,0,0,0,0,0,0,0,0,0,0,0,0,0,0,0,0,0,0,0,0,0,0,0,0,0,0,0,0,0,0,0,0,0,0,0,0,0,0,0,0,0,0,0,0,0,0,0,0,0,0,0,0,0,0,0,0,0,0,0,0,0,0,0,0,0],"sum_hessian":[1.1792E4,7.249E3,4.543E3,2.156E3,5.093E3,1.048E3,3.495E3,1.932E3,2.24E2,3.153E3,1.94E3,7.02E2,3.46E2,2.383E3,1.112E3,6.76E2,1.256E3,8.3E1,1.41E2,2.969E3,1.84E2,9.17E2,1.023E3,4.17E2,2.85E2,2.75E2,7.1E1,1.934E3,4.49E2,1.09E2,1.003E3,1.62E2,5.14E2,4.55E2,8.01E2,5.7E1,2.6E1,1.65E3,1.319E3,5.37E2,3.8E2,5.16E2,5.07E2,2.97E2,1.2E2,2.22E2,6.3E1,1.9E1,2.56E2,2.8E1,4.3E1,5E2,1.434E3,2.68E2,1.81E2,6.1E1,4.8E1,4.59E2,5.44E2,2.6E1,1.36E2,4.92E2,2.2E1,2.24E2,2.31E2,2.13E2,5.88E2,1.32E2,1.518E3,2.75E2,1.044E3,2.14E2,3.23E2,6E1,3.2E2,8E1,4.36E2,8.7E1,4.2E2,2.9E1,2.68E2,6.8E1,5.2E1,2.04E2,1.8E1,6.1E1,2E0,1.72E2,8.4E1,2.7E1,1E0,4E0,3.9E1,1.93E2,3.07E2,8.19E2,6.15E2,2.27E2,2.32E2,3.22E2,2.22E2],"tree_param":{"num_deleted":"0","num_feature":"8","num_nodes":"101","size_leaf_vector":"0"}},{"base_weights":[5.7118122E1,8.4170715E1,2.7680119E1,6.285053E1,1.0419871E2,4.954352E1,1.5608912E1,6.050509E1,1.4296411E2,1.2927658E2,9.311709E1,3.733139E1,6.292893E1,1.1401504E1,2.3569845E1,7.085147E1,5.5126877E1,1.542258E2,1.13477356E2,1.2153467E2,1.8099138E2,1.09025215E2,8.071319E1,3.33925E1,4.6209503E1,6.5421844E1,3.7247807E1,1.0796714E1,1.3976762E1,2.7206795E1,2.1798464E1,6.99874E1,1.25905754E2,7.6428024E1,5.2280148E1,1.2776734E2,7.327866E1,1.863446E2,1.332106E2,1.2735145E2,9.9149765E1,9.190335E1,7.247678E1,3.1541729E1,4.54899E1,4.278012E1,7.3899315E1,7.657086E1,5.4019325E1,4.5991962E1,3.1586004E1,1.2741168E1,9.656805E0,1.6081148E1,1.32815695E1,3.682261E1,2.5540344E1,2.265435E1,1.8917961E1,7.505792E1,6.403869E1,7.0842094E1,1.5834824E2,6.2682407E1,8.476027E1,4.0753376E1,5.5275764E1,1.2867418E2,6.666758E1,9.683154E1,1.3842781E2,8.315597E1,1.0470444E2,9.643224E1,7.484877E1,6.3249653E1,7.5532005E1,3.3075874E1,2.2735111E1,5.6514767E1,2.20186E1,2.8843843E1,4.4470524E1,7.795371E1,6.0424454E1,4.374612E1,6.2532608E1,2.3639957E1,5.024089E1,1.9934364E1,3.28437E1,1.3996979E1,1.2247202E1,9.247903E0,1.082748E1,1.3478129E1,9.423394E0,2.2950068E1,2.6737406E1,2.1283705E1,2.5451202E1,1.9494587E1,1.4287028E1],"categories":[],"categories_nodes":[],"categories_segments":[],"categories_sizes":[],"default_left":[1,1,1,1,1,1,1,1,1,1,1,1,1,1,1,1,1,0,0,1,1,1,1,1,1,1,1,1,1,1,1,1,1,1,1,1,0,0,0,1,1,1,1,1,1,1,0,1,1,1,1,1,1,0,1,0,1,1,1,0,0,0,0,0,0,0,0,0,0,0,0,0,0,0,0,0,0,0,0,0,0,0,0,0,0,0,0,0,0,0,0,0,0,0,0,0,0,0,0,0,0,0,0],"id":2,"left_children":[1,3,5,7,9,11,13,15,17,19,21,23,25,27,29,31,33,-1,-1,35,37,39,41,43,45,47,49,51,53,55,57,59,61,63,65,67,-1,-1,-1,69,71,73,75,77,79,81,-1,83,85,87,89,91,93,-1,95,-1,97,99,101,-1,-1,-1,-1,-1,-1,-1,-1,-1,-1,-1,-1,-1,-1,-1,-1,-1,-1,-1,-1,-1,-1,-1,-1,-1,-1,-1,-1,-1,-1,-1,-1,-1,-1,-1,-1,-1,-1,-1,-1,-1,-1,-1,-1],"loss_changes":[9.389316E6,2.617368E6,1.4900975E6,5.51108E5,8.6808E5,3.260505E5,1.21686125E5,1.57243E5,1.039275E4,3.65563E5,4.2531E5,3.528025E4,5.883125E4,3.562125E3,7.5115625E3,3.81405E4,1.11824E5,0E0,0E0,2.44783E5,6.89375E3,1.61295E5,1.076255E5,1.497675E4,2.7320438E4,1.0659125E5,2.8544688E3,4.1658906E3,4.4475E2,5.5974688E3,1.6694375E3,2.45725E4,1.3791922E4,2.022775E4,5.60335E4,3.2811E4,0E0,0E0,0E0,9.9166E4,4.7174E4,3.3101E4,1.549175E4,7.88125E3,2.3338594E4,5.502E3,0E0,5.06925E3,3.52215E4,1.8514062E3,1.6591797E2,2.702422E2,4.8578125E2,0E0,1.3386328E2,0E0,4.7471875E2,1.9539062E3,2.5821875E2,0E0,0E0,0E0,0E0,0E0,0E0,0E0,0E0,0E0,0E0,0E0,0E0,0E0,0E0,0E0,0E0,0E0,0E0,0E0,0E0,0E0,0E0,0E0,0E0,0E0,0E0,0E0,0E0,0E0,0E0,0E0,0E0,0E0,0E0,0E0,0E0,0E0,0E0,0E0,0E0,0E0,0E0,0E0,0E0],"parents":[2147483647,0,0,1,1,2,2,3,3,4,4,5,5,6,6,7,7,8,8,9,9,10,10,11,11,12,12,13,13,14,14,15,15,16,16,19,19,20,20,21,21,22,22,23,23,24,24,25,25,26,26,27,27,28,28,29,29,30,30,31,31,32,32,33,33,34,34,35,35,39,39,40,40,41,41,42,42,43,43,44,44,45,45,47,47,48,48,49,49,50,50,51,51,52,52,54,54,56,56,57,57,58,58],"right_children":[2,4,6,8,10,12,14,16,18,20,22,24,26,28,30,32,34,-1,-1,36,38,40,42,44,46,48,50,52,54,56,58,60,62,64,66,68,-1,-1,-1,70,72,74,76,78,80,82,-1,84,86,88,90,92,94,-1,96,-1,98,100,102,-1,-1,-1,-1,-1,-1,-1,-1,-1,-1,-1,-1,-1,-1,-1,-1,-1,-1,-1,-1,-1,-1,-1,-1,-1,-1,-1,-1,-1,-1,-1,-1,-1,-1,-1,-1,-1,-1,-1,-1,-1,-1,-1,-1],"split_conditions":[1.25E1,5E-1,1.15E1,1.55E1,3.5E0,1.55E3,1.35E1,7.5E0,1.5E0,1.35E1,5.5E0,4.5E0,2.05E1,1.45E3,1.95E1,1.15E1,6E0,4.6267742E1,3.404321E1,5E-1,8.4999E4,6.5E0,6.5E0,5E-1,5E-1,6.5E0,2.25E1,3.45E1,3.85E1,1.45E1,2.65E1,9.5E0,5E-1,1.55E3,5E-1,5E-1,2.19836E1,5.5903385E1,3.996318E1,2.5E0,5E-1,1.49999E5,1.55E3,2.5E0,2.25E1,5E-1,2.2169796E1,1.85E1,1.05E1,5E-1,5E-1,2.95E1,5.5E0,4.8243446E0,4.65E1,1.1046783E1,1.5E0,5E-1,2.95E1,2.2517378E1,1.9211607E1,2.1252628E1,4.750447E1,1.8804724E1,2.5428082E1,1.2226013E1,1.658273E1,3.8602257E1,2.0000275E1,2.9049463E1,4.1528343E1,2.494679E1,3.1411333E1,2.8929674E1,2.2454632E1,1.8974897E1,2.2659603E1,9.922763E0,6.8205338E0,1.6954432E1,6.6055803E0,8.653153E0,1.3341158E1,2.3386114E1,1.8127337E1,1.31238365E1,1.8759783E1,7.0919876E0,1.5072268E1,5.9803095E0,9.85311E0,4.199094E0,3.6741607E0,2.774371E0,3.2482443E0,4.043439E0,2.8270183E0,6.8850207E0,8.021222E0,6.385112E0,7.635361E0,5.8483763E0,4.2861085E0],"split_indices":[6,5,7,7,6,4,7,6,6,7,7,7,6,4,6,1,7,0,0,0,3,6,6,5,0,7,6,6,6,7,6,7,2,4,1,2,0,0,0,7,7,3,4,7,6,1,0,6,7,7,7,6,1,0,6,0,1,0,6,0,0,0,0,0,0,0,0,0,0,0,0,0,0,0,0,0,0,0,0,0,0,0,0,0,0,0,0,0,0,0,0,0,0,0,0,0,0,0,0,0,0,0,0],"split_type":[0,0,0,0,0,0,0,0,0,0,0,0,0,0,0,0,0,0,0,0,0,0,0,0,0,0,0,0,0,0,0,0,0,0,0,0,0,0,0,0,0,0,0,0,0,0,0,0,0,0,0,0,0,0,0,0,0,0,0,0,0,0,0,0,0,0,0,0,0,0,0,0,0,0,0,0,0,0,0,0,0,0,0,0,0,0,0,0,0,0,0,0,0,0,0,0,0,0,0,0,0,0,0],"sum_hessian":[1.1792E4,6.144E3,5.648E3,2.978E3,3.166E3,2.008E3,3.64E3,2.895E3,8.3E1,9.67E2,2.199E3,1.052E3,9.56E2,2.383E3,1.257E3,9.86E2,1.909E3,5.7E1,2.6E1,8.44E2,1.23E2,9.6E2,1.239E3,7.32E2,3.2E2,8.7E2,8.6E1,1.934E3,4.49E2,4.07E2,8.5E2,9.73E2,1.3E1,2.22E2,1.687E3,7.46E2,9.8E1,1.08E2,1.5E1,3.32E2,6.28E2,5.21E2,7.18E2,6.38E2,9.4E1,2.87E2,3.3E1,4.37E2,4.33E2,3.1E1,5.5E1,7.11E2,1.223E3,1.06E2,3.43E2,5.7E1,3.5E2,6.5E2,2E2,5.19E2,4.54E2,6E0,7E0,8.7E1,1.35E2,3.51E2,1.336E3,7.34E2,1.2E1,9.1E1,2.41E2,1.66E2,4.62E2,4.08E2,1.13E2,1.84E2,5.34E2,5.41E2,9.7E1,6.3E1,3.1E1,3.3E1,2.54E2,3.99E2,3.8E1,1.99E2,2.34E2,6E0,2.5E1,7E0,4.8E1,1.93E2,5.18E2,9.13E2,3.1E2,3.24E2,1.9E1,1.17E2,2.33E2,4.42E2,2.08E2,1.75E2,2.5E1],"tree_param":{"num_deleted":"0","num_feature":"8","num_nodes":"103","size_leaf_vector":"0"}},{"base_weights":[4.00617E1,6.1133904E1,2.1420588E1,4.581682E1,7.463799E1,3.6191505E1,1.096309E1,4.3952988E1,1.0103095E2,7.207687E1,1.2459526E2,2.9209068E1,4.798709E1,7.991787E0,1.6475658E1,4.910401E1,3.751291E1,8.871399E1,1.17377945E2,8.3551254E1,6.231092E1,1.4046019E2,1.105442E2,2.5409414E1,3.6678806E1,4.9929577E1,2.3255367E1,7.564881E0,9.809723E0,2.1869017E1,1.5827635E1,4.84039E1,9.718555E1,4.743826E1,3.2983208E1,9.263026E1,7.054366E1,9.380393E1,5.9339085E1,2.758857E1,1.9771666E1,3.51256E1,5.985382E1,5.3986034E1,4.434733E1,2.6646353E1,1.4337387E1,8.7978525E0,6.5515127E0,1.0253056E1,7.9976473E0,2.3777575E1,1.5500139E1,1.7143293E1,1.4338092E1,4.0482998E1,5.0709915E1,5.8532482E1,1.26120056E2,5.8701965E1,4.3979694E1,2.9687904E1,4.300844E1,7.270258E1,9.796965E1,7.1587E1,1.9366806E1,1.0550651E2,4.9812088E1,6.452438E1,5.2195484E1,1.7959116E1,2.8881878E1,2.1224737E1,1.4754393E1,3.2562954E1,4.533288E1,2.4567831E1,6.1337826E1,3.473153E1,5.599468E1,3.71244E1,4.5825718E1,2.7364985E1,6.0265603E0,8.6998624E-1,1.5640628E1,9.331402E0,8.0516205E0,6.2090254E0,7.486188E0,1.1716842E1,9.863028E0,6.9491987E0,9.6933365E0,8.30637E0,2.4162497E1,1.1775753E1,1.7518421E1,1.5194712E1,1.813334E1,1.193899E1,1.5060849E1],"categories":[],"categories_nodes":[],"categories_segments":[],"categories_sizes":[],"default_left":[1,1,1,1,1,1,1,1,1,1,1,1,1,1,1,1,1,0,0,1,1,0,0,1,1,1,1,1,1,1,1,1,1,1,1,1,1,1,1,1,1,1,1,1,1,1,1,1,1,1,1,1,1,1,1,0,0,0,0,0,0,0,0,0,0,0,0,0,0,0,0,0,0,0,0,0,0,0,0,0,0,0,0,0,0,0,0,0,0,0,0,0,0,0,0,0,0,0,0,0,0,0,0],"id":3,"left_children":[1,3,5,7,9,11,13,15,17,19,21,23,25,27,29,31,33,-1,-1,35,37,-1,-1,39,41,43,45,47,49,51,53,55,57,59,61,63,65,67,69,71,73,75,77,79,81,83,85,87,89,91,93,95,97,99,101,-1,-1,-1,-1,-1,-1,-1,-1,-1,-1,-1,-1,-1,-1,-1,-1,-1,-1,-1,-1,-1,-1,-1,-1,-1,-1,-1,-1,-1,-1,-1,-1,-1,-1,-1,-1,-1,-1,-1,-1,-1,-1,-1,-1,-1,-1,-1,-1],"loss_changes":[4.63109E6,1.141458E6,9.664115E5,2.627125E5,3.67183E5,2.12245E5,5.9915625E4,8.1522E4,6.4999375E3,3.08445E5,1.612725E4,4.5388125E4,4.510225E4,1.7759844E3,4.138E3,4.218775E4,4.883425E4,0E0,0E0,1.45101E5,1.363195E5,0E0,0E0,1.27843125E4,1.7623188E4,1.78045E4,1.795293E3,2.3600469E3,2.795039E2,1.2724141E3,2.0059062E3,2.30625E4,1.3867625E4,1.10140625E4,2.4260188E4,7.2998E4,2.701975E4,6.1156E4,4.8046E4,9.1953125E3,1.9177188E3,1.20211875E4,2.2109375E2,1.7857E4,2.36725E3,5.908047E2,3.725205E2,2.712578E2,2.9476562E2,8.882422E1,9.7978516E1,4.0672656E2,4.928076E1,8.91625E2,7.652031E2,0E0,0E0,0E0,0E0,0E0,0E0,0E0,0E0,0E0,0E0,0E0,0E0,0E0,0E0,0E0,0E0,0E0,0E0,0E0,0E0,0E0,0E0,0E0,0E0,0E0,0E0,0E0,0E0,0E0,0E0,0E0,0E0,0E0,0E0,0E0,0E0,0E0,0E0,0E0,0E0,0E0,0E0,0E0,0E0,0E0,0E0,0E0,0E0],"parents":[2147483647,0,0,1,1,2,2,3,3,4,4,5,5,6,6,7,7,8,8,9,9,10,10,11,11,12,12,13,13,14,14,15,15,16,16,19,19,20,20,23,23,24,24,25,25,26,26,27,27,28,28,29,29,30,30,31,31,32,32,33,33,34,34,35,35,36,36,37,37,38,38,39,39,40,40,41,41,42,42,43,43,44,44,45,45,46,46,47,47,48,48,49,49,50,50,51,51,52,52,53,53,54,54],"right_children":[2,4,6,8,10,12,14,16,18,20,22,24,26,28,30,32,34,-1,-1,36,38,-1,-1,40,42,44,46,48,50,52,54,56,58,60,62,64,66,68,70,72,74,76,78,80,82,84,86,88,90,92,94,96,98,100,102,-1,-1,-1,-1,-1,-1,-1,-1,-1,-1,-1,-1,-1,-1,-1,-1,-1,-1,-1,-1,-1,-1,-1,-1,-1,-1,-1,-1,-1,-1,-1,-1,-1,-1,-1,-1,-1,-1,-1,-1,-1,-1,-1,-1,-1,-1,-1,-1],"split_conditions":[1.15E1,5E-1,1.15E1,1.55E1,1.35E1,5E-1,1.35E1,9.5E0,5E-1,4E0,3.4999E4,1.55E3,2.15E1,1.45E3,1.45E1,1.05E1,6.5E0,2.6614199E1,3.5213387E1,6.5E0,1.5E0,4.2138058E1,3.316326E1,2.05E1,5E-1,5.5E0,2.65E1,3.55E1,4.35E1,2.45E1,2.25E1,5E-1,5E-1,3.5E0,1.55E3,1.5E0,5E-1,1E0,6.5E0,5E-1,2.45E1,1.05E1,3.5E0,5E-1,7.5E0,3.5E0,1.4999E4,3.25E1,5.5E0,3.75E1,1.09999E5,1.25E1,6.4999E4,1.5E0,5E-1,1.21449E1,1.52129755E1,1.7559746E1,3.7836018E1,1.761059E1,1.3193909E1,8.906372E0,1.2902532E1,2.1810776E1,2.9390896E1,2.14761E1,5.810042E0,3.1651953E1,1.4943627E1,1.9357315E1,1.5658646E1,5.387735E0,8.664564E0,6.3674216E0,4.426318E0,9.768887E0,1.3599864E1,7.3703494E0,1.8401348E1,1.0419459E1,1.6798405E1,1.11373205E1,1.3747716E1,8.209496E0,1.8079681E0,2.609959E-1,4.6921887E0,2.7994206E0,2.4154863E0,1.8627077E0,2.2458565E0,3.5150526E0,2.9589083E0,2.0847597E0,2.908001E0,2.491911E0,7.2487493E0,3.532726E0,5.2555265E0,4.5584135E0,5.4400024E0,3.581697E0,4.5182548E0],"split_indices":[6,5,7,7,7,5,7,7,0,7,3,4,6,4,7,1,6,0,0,6,6,0,0,6,0,7,6,6,6,6,6,1,2,6,4,6,0,0,6,1,6,7,7,7,7,7,3,6,1,6,3,6,3,1,1,0,0,0,0,0,0,0,0,0,0,0,0,0,0,0,0,0,0,0,0,0,0,0,0,0,0,0,0,0,0,0,0,0,0,0,0,0,0,0,0,0,0,0,0,0,0,0,0],"split_type":[0,0,0,0,0,0,0,0,0,0,0,0,0,0,0,0,0,0,0,0,0,0,0,0,0,0,0,0,0,0,0,0,0,0,0,0,0,0,0,0,0,0,0,0,0,0,0,0,0,0,0,0,0,0,0,0,0,0,0,0,0,0,0,0,0,0,0,0,0,0,0,0,0,0,0,0,0,0,0,0,0,0,0,0,0,0,0,0,0,0,0,0,0,0,0,0,0,0,0,0,0,0,0],"sum_hessian":[1.1792E4,5.534E3,6.258E3,2.595E3,2.939E3,2.593E3,3.665E3,2.512E3,8.3E1,2.798E3,1.41E2,1.631E3,9.62E2,2.383E3,1.282E3,1.392E3,1.12E3,5.1E1,3.2E1,1.283E3,1.515E3,6.2E1,7.9E1,1.084E3,5.47E2,8.91E2,7.1E1,1.934E3,4.49E2,1.34E2,1.148E3,1.374E3,1.8E1,3.48E2,7.72E2,7.52E2,5.31E2,1.28E2,1.387E3,7.79E2,3.05E2,5.15E2,3.2E1,5.11E2,3.8E2,5E1,2.1E1,8.69E2,1.065E3,3.57E2,9.2E1,1.01E2,3.3E1,6.04E2,5.44E2,3.14E2,1.06E3,9E0,9E0,7.8E1,2.7E2,5.84E2,1.88E2,1.62E2,5.9E2,5.2E2,1.1E1,1E2,2.8E1,7.99E2,5.88E2,9.4E1,6.85E2,2.34E2,7.1E1,4.15E2,1E2,2E0,3E1,5E1,4.61E2,6.9E1,3.11E2,4.8E1,2E0,2E0,1.9E1,5E2,3.69E2,7.85E2,2.8E2,6.9E1,2.88E2,6E1,3.2E1,3E0,9.8E1,1.4E1,1.9E1,2.09E2,3.95E2,1.3E2,4.14E2],"tree_param":{"num_deleted":"0","num_feature":"8","num_nodes":"103","size_leaf_vector":"0"}},{"base_weights":[2.80967E1,4.8852356E1,1.867978E1,6.3225895E1,4.2169094E1,2.8006111E1,7.8135614E0,5.889539E1,8.300397E1,5.7709595E1,3.7075928E1,2.0632915E1,3.3641705E1,5.602971E0,1.1665856E1,6.2129234E1,3.1680975E1,7.14577E1,9.015624E1,4.424196E1,6.677518E1,3.622831E1,7.115498E1,2.2363579E1,1.4759341E1,4.0359818E1,2.9045788E1,6.045268E0,4.600471E0,1.6670923E1,1.0897046E1,9.02933E1,6.0122814E1,3.3083527E1,-2.7062347E0,7.785606E1,5.5066517E1,1.02962654E2,8.234121E1,4.8288162E1,2.455637E1,7.139797E1,5.9580734E1,3.275559E1,4.1760082E1,3.4083546E1,8.077301E1,2.4996521E1,1.6524475E1,1.4202501E1,2.9366909E1,4.311767E1,2.048474E1,2.2670284E1,3.484463E1,5.773992E0,7.4174976E0,4.1058283E0,6.0781455E0,1.1308967E1,1.84272E1,4.7827764E0,1.1095096E1,1.06992294E2,6.4265755E1,-2.232358E1,6.0875893E1,-4.121862E0,-3.8852945E-1,6.439045E1,3.2776783E1,4.306872E1,6.4789024E1,3.6023376E1,1.6307707E1,6.1585953E1,7.5052055E1,6.0548103E1,3.4841415E1,3.6032402E1,2.9055595E1,3.4398197E1,4.6604538E1,1.8196892E1,4.4289604E1,7.18143E1,1.0634865E2,1.7120918E1,2.8276089E1,1.4422712E1,3.9319633E1,1.1753233E1,1.6787586E1,3.4167137E1,1.2933027E1,4.615967E1,3.752449E1,1.7246473E1,3.646139E1,2.2134743E1,1.4043036E2,1.4662519E1,3.610841E1,6.537568E0,5.3342123E0,6.873637E0,8.227277E0,3.2362316E0,4.5065794E0,5.559836E0,6.8847995E0,1.2228904E1,1.1357162E0,2.8869392E1,1.6868357E1,7.6904197E0,2.8468795E0,1.1534341E1,8.666411E0],"categories":[],"categories_nodes":[],"categories_segments":[],"categories_sizes":[],"default_left":[1,1,1,1,1,1,1,1,1,1,1,1,1,1,1,1,1,1,1,1,1,1,1,1,1,1,1,1,1,1,1,1,1,0,1,0,1,0,0,1,1,1,1,1,1,1,1,1,1,1,1,1,1,1,1,1,1,1,1,1,1,1,1,0,0,0,0,0,0,0,0,0,0,0,0,0,0,0,0,0,0,0,0,0,0,0,0,0,0,0,0,0,0,0,0,0,0,0,0,0,0,0,0,0,0,0,0,0,0,0,0,0,0,0,0,0,0,0,0],"id":4,"left_children":[1,3,5,7,9,11,13,15,17,19,21,23,25,27,29,31,33,35,37,39,41,43,45,47,49,51,53,55,57,59,61,63,65,-1,67,-1,69,-1,-1,71,73,75,77,79,81,83,85,87,89,91,93,95,97,99,101,103,105,107,109,111,113,115,117,-1,-1,-1,-1,-1,-1,-1,-1,-1,-1,-1,-1,-1,-1,-1,-1,-1,-1,-1,-1,-1,-1,-1,-1,-1,-1,-1,-1,-1,-1,-1,-1,-1,-1,-1,-1,-1,-1,-1,-1,-1,-1,-1,-1,-1,-1,-1,-1,-1,-1,-1,-1,-1,-1,-1,-1],"loss_changes":[2.304082E6,3.50842E5,8.2206975E5,9.4978E4,1.96924E5,1.807235E5,3.1860531E4,8.25185E4,1.0652125E4,7.2620375E4,5.221875E4,1.892275E4,7.518375E4,1.0292656E3,5.0746406E3,4.29995E4,5.1054297E3,4.5223438E3,3.932125E3,1.88865E4,7.985125E3,3.422875E4,1.3291891E4,2.2048438E4,3.1131094E3,5.403875E4,5.363075E4,5.717578E2,5.1154004E2,1.4866797E3,1.3843125E3,1.7028906E4,5.1216E4,0E0,1.4803566E1,0E0,3.5008516E3,0E0,0E0,1.5123656E4,3.6689785E3,3.229875E3,1.48025E3,1.2811E4,2.3754125E4,9.776074E2,3.8201562E2,2.5473562E4,2.132779E4,2.4619531E3,7.4141016E2,1.3223625E4,5.7865117E3,4.128972E4,1.9084562E4,4.2954688E2,6.191797E1,1.7813184E2,3.781494E1,4.2597314E2,1.6942344E3,1.9763336E2,1.1257812E3,0E0,0E0,0E0,0E0,0E0,0E0,0E0,0E0,0E0,0E0,0E0,0E0,0E0,0E0,0E0,0E0,0E0,0E0,0E0,0E0,0E0,0E0,0E0,0E0,0E0,0E0,0E0,0E0,0E0,0E0,0E0,0E0,0E0,0E0,0E0,0E0,0E0,0E0,0E0,0E0,0E0,0E0,0E0,0E0,0E0,0E0,0E0,0E0,0E0,0E0,0E0,0E0,0E0,0E0,0E0,0E0],"parents":[2147483647,0,0,1,1,2,2,3,3,4,4,5,5,6,6,7,7,8,8,9,9,10,10,11,11,12,12,13,13,14,14,15,15,16,16,17,17,18,18,19,19,20,20,21,21,22,22,23,23,24,24,25,25,26,26,27,27,28,28,29,29,30,30,31,31,32,32,34,34,36,36,39,39,40,40,41,41,42,42,43,43,44,44,45,45,46,46,47,47,48,48,49,49,50,50,51,51,52,52,53,53,54,54,55,55,56,56,57,57,58,58,59,59,60,60,61,61,62,62],"right_children":[2,4,6,8,10,12,14,16,18,20,22,24,26,28,30,32,34,36,38,40,42,44,46,48,50,52,54,56,58,60,62,64,66,-1,68,-1,70,-1,-1,72,74,76,78,80,82,84,86,88,90,92,94,96,98,100,102,104,106,108,110,112,114,116,118,-1,-1,-1,-1,-1,-1,-1,-1,-1,-1,-1,-1,-1,-1,-1,-1,-1,-1,-1,-1,-1,-1,-1,-1,-1,-1,-1,-1,-1,-1,-1,-1,-1,-1,-1,-1,-1,-1,-1,-1,-1,-1,-1,-1,-1,-1,-1,-1,-1,-1,-1,-1,-1,-1,-1,-1],"split_conditions":[8.5E0,3.5E0,1.15E1,1.5E1,3.5E0,1.55E3,1.35E1,5E-1,5E-1,2.5E0,1.05E1,1.95E1,6.5E0,4.15E1,1.45E1,5E-1,1E1,1.5E0,2.4999E4,1.5E0,1.29999E5,5E-1,1.55E3,9.5E0,4.5E0,1.85E1,7.5E0,1.45E3,1.45E3,4.4999E4,1.15E1,2.5E0,2E0,9.925058E0,2.5E0,2.3356817E1,5.4999E4,3.0888798E1,2.4702364E1,5E-1,5E-1,3.4999E4,1.05E1,9.5E0,1.55E3,1.15E1,1.999995E5,5E-1,1.05E1,5.5E0,2.5E0,1.35E1,5E-1,1.25E1,5E-1,3.25E1,9.4999E4,1.89999E5,1.09999E5,3.4999E4,1.09999E5,3.4999E4,2.65E1,3.209769E1,1.9279728E1,-6.6970744E0,1.8262768E1,-1.2365587E0,-1.1655884E-1,1.9317135E1,9.833035E0,1.2920617E1,1.9436708E1,1.08070135E1,4.892312E0,1.8475786E1,2.2515617E1,1.8164433E1,1.0452425E1,1.0809721E1,8.716679E0,1.031946E1,1.3981362E1,5.459068E0,1.3286881E1,2.154429E1,3.1904596E1,5.136276E0,8.482827E0,4.3268137E0,1.1795891E1,3.52597E0,5.036276E0,1.0250141E1,3.8799083E0,1.3847902E1,1.1257347E1,5.173942E0,1.0938417E1,6.6404233E0,4.212911E1,4.398756E0,1.0832523E1,1.9612705E0,1.6002637E0,2.0620914E0,2.468183E0,9.708695E-1,1.3519739E0,1.6679509E0,2.06544E0,3.6686714E0,3.4071487E-1,8.660818E0,5.0605073E0,2.307126E0,8.5406387E-1,3.4603024E0,2.5999236E0],"split_indices":[6,6,7,7,7,4,7,0,5,7,1,6,7,6,7,7,7,6,3,7,3,5,4,7,7,6,7,4,4,3,6,6,7,0,6,0,3,0,0,7,5,3,1,7,4,1,3,7,7,1,1,6,0,1,1,6,3,3,3,3,3,3,6,0,0,0,0,0,0,0,0,0,0,0,0,0,0,0,0,0,0,0,0,0,0,0,0,0,0,0,0,0,0,0,0,0,0,0,0,0,0,0,0,0,0,0,0,0,0,0,0,0,0,0,0,0,0,0,0],"split_type":[0,0,0,0,0,0,0,0,0,0,0,0,0,0,0,0,0,0,0,0,0,0,0,0,0,0,0,0,0,0,0,0,0,0,0,0,0,0,0,0,0,0,0,0,0,0,0,0,0,0,0,0,0,0,0,0,0,0,0,0,0,0,0,0,0,0,0,0,0,0,0,0,0,0,0,0,0,0,0,0,0,0,0,0,0,0,0,0,0,0,0,0,0,0,0,0,0,0,0,0,0,0,0,0,0,0,0,0,0,0,0,0,0,0,0,0,0,0,0],"sum_hessian":[1.1792E4,3.679E3,8.113E3,1.165E3,2.514E3,4.365E3,3.748E3,9.59E2,2.06E2,6.18E2,1.896E3,1.893E3,2.472E3,2.383E3,1.365E3,8.56E2,1.03E2,8.3E1,1.23E2,2.51E2,3.67E2,1.852E3,4.4E1,1.46E3,4.33E2,1.001E3,1.471E3,1.65E3,7.33E2,1.79E2,1.186E3,5.4E1,8.02E2,9.9E1,4E0,5.7E1,2.6E1,4.2E1,8.1E1,2.07E2,4.4E1,2.18E2,1.49E2,1.142E3,7.1E2,1E1,3.4E1,1.004E3,4.56E2,4.19E2,1.4E1,8.78E2,1.23E2,7.03E2,7.68E2,1.382E3,2.68E2,5.52E2,1.81E2,4.6E1,1.33E2,3.8E1,1.148E3,3.1E1,2.3E1,7E0,7.95E2,2E0,2E0,1.7E1,9E0,1.6E2,4.7E1,1.7E1,2.7E1,6.4E1,1.54E2,1.42E2,7E0,6.01E2,5.41E2,2.85E2,4.25E2,5E0,5E0,2.8E1,6E0,2.97E2,7.07E2,4.19E2,3.7E1,2.18E2,2.01E2,1E1,4E0,5.64E2,3.14E2,1.04E2,1.9E1,7.01E2,2E0,4.6E1,7.22E2,5E2,8.82E2,1.66E2,1.02E2,1.77E2,3.75E2,1.15E2,6.6E1,4.2E1,4E0,1.5E1,1.18E2,1.4E1,2.4E1,9.69E2,1.79E2],"tree_param":{"num_deleted":"0","num_feature":"8","num_nodes":"119","size_leaf_vector":"0"}},{"base_weights":[1.971959E1,3.1451344E1,1.1252244E1,4.1894413E1,2.642212E1,1.8140556E1,5.4497046E0,3.9223984E1,5.844034E1,3.730654E1,2.2846928E1,1.4704941E1,2.396045E1,3.928014E0,8.158949E0,4.7755203E1,3.40084E1,8.528149E1,5.6071896E1,2.9335945E1,4.3674614E1,2.266955E1,1.2857211E2,1.3907406E1,2.5203295E1,2.5024242E1,1.4345517E1,4.2365885E0,3.2285807E0,1.1564974E1,7.689405E0,2.7546003E1,5.558288E1,2.8967594E1,4.3766384E1,4.6172703E1,5.8036163E1,3.2371998E1,1.67953E1,1.6731405E1,4.4365128E1,1.4558629E1,2.4010223E1,1.5052017E1,6.1637216E0,3.3879845E1,1.9727617E1,2.8066536E1,2.1459896E1,1.2287671E1,2.381458E1,4.044369E0,5.209089E0,2.8782806E0,4.2752147E0,1.424623E1,8.336266E0,6.47396E0,8.278163E0,2.3908537E1,1.0964796E2,6.1636993E1,3.8488632E1,3.2417683E1,2.4790806E1,5.1976948E1,3.2381256E1,5.3860626E1,3.175502E1,6.003545E1,4.7263977E1,2.8732702E1,4.392834E1,2.4617445E1,9.144208E0,-6.129755E1,4.6269848E1,4.90693E1,3.859027E1,1.7190422E1,7.665628E0,2.0171255E1,2.76534E1,1.8351706E1,1.1576733E1,7.4094033E0,5.0300217E-1,3.1698606E1,5.2130074E1,2.198324E1,8.344341E0,2.9146914E1,1.9538446E1,1.6038017E1,2.308269E1,8.534212E0,1.5943563E1,2.5020342E1,8.641823E0,4.7915587E0,3.7865686E0,6.080139E0,4.8781757E0,2.4515538E0,3.6019397E0,3.878021E0,5.2462463E0,1.2380037E1,1.6494274E1,9.210148E0,3.460047E0,6.078407E0,8.866931E0,1.0477482E1,7.534823E0],"categories":[],"categories_nodes":[],"categories_segments":[],"categories_sizes":[],"default_left":[1,1,1,1,1,1,1,1,1,1,1,1,1,1,1,1,1,0,1,1,1,1,0,1,1,1,1,1,1,1,1,1,1,1,1,1,1,1,1,1,1,1,1,1,1,1,1,1,1,1,1,1,1,1,1,1,1,1,1,0,0,0,0,0,0,0,0,0,0,0,0,0,0,0,0,0,0,0,0,0,0,0,0,0,0,0,0,0,0,0,0,0,0,0,0,0,0,0,0,0,0,0,0,0,0,0,0,0,0,0,0,0,0,0,0],"id":5,"left_children":[1,3,5,7,9,11,13,15,17,19,21,23,25,27,29,31,33,-1,35,37,39,41,-1,43,45,47,49,51,53,55,57,59,61,63,65,67,69,71,73,75,77,79,81,83,85,87,89,91,93,95,97,99,101,103,105,107,109,111,113,-1,-1,-1,-1,-1,-1,-1,-1,-1,-1,-1,-1,-1,-1,-1,-1,-1,-1,-1,-1,-1,-1,-1,-1,-1,-1,-1,-1,-1,-1,-1,-1,-1,-1,-1,-1,-1,-1,-1,-1,-1,-1,-1,-1,-1,-1,-1,-1,-1,-1,-1,-1,-1,-1,-1,-1],"loss_changes":[1.171125E6,2.58502E5,2.7373356E5,6.8624E4,1.2908125E5,6.227175E4,1.5304141E4,6.0002E4,9.2675E3,4.054275E4,4.426825E4,1.6160656E4,1.15160625E4,5.0085156E2,2.0493125E3,8.1202875E4,4.11815E4,0E0,1.325875E3,1.3505594E4,7.7415E3,2.697725E4,0E0,1.6171781E4,5.888008E3,1.0718625E4,2.006707E3,2.8756055E2,2.5680518E2,1.2663594E3,7.893906E2,4.1577664E4,3.6540125E4,7.4390625E3,2.5612625E4,2.6125E3,7.806875E2,1.1186719E4,4.2036406E3,3.279933E4,1.0168E4,6.380828E3,2.9582E4,1.8112375E4,1.6745195E3,4.1757812E2,2.0504062E3,4.5900938E3,3.897125E3,1.2224365E3,1.4967383E2,2.4825781E2,4.7876953E1,1.6193896E2,4.9850098E1,1.5659375E2,2.8772607E2,3.1430957E2,1.2125781E3,0E0,0E0,0E0,0E0,0E0,0E0,0E0,0E0,0E0,0E0,0E0,0E0,0E0,0E0,0E0,0E0,0E0,0E0,0E0,0E0,0E0,0E0,0E0,0E0,0E0,0E0,0E0,0E0,0E0,0E0,0E0,0E0,0E0,0E0,0E0,0E0,0E0,0E0,0E0,0E0,0E0,0E0,0E0,0E0,0E0,0E0,0E0,0E0,0E0,0E0,0E0,0E0,0E0,0E0,0E0,0E0],"parents":[2147483647,0,0,1,1,2,2,3,3,4,4,5,5,6,6,7,7,8,8,9,9,10,10,11,11,12,12,13,13,14,14,15,15,16,16,18,18,19,19,20,20,21,21,23,23,24,24,25,25,26,26,27,27,28,28,29,29,30,30,31,31,32,32,33,33,34,34,35,35,36,36,37,37,38,38,39,39,40,40,41,41,42,42,43,43,44,44,45,45,46,46,47,47,48,48,49,49,50,50,51,51,52,52,53,53,54,54,55,55,56,56,57,57,58,58],"right_children":[2,4,6,8,10,12,14,16,18,20,22,24,26,28,30,32,34,-1,36,38,40,42,-1,44,46,48,50,52,54,56,58,60,62,64,66,68,70,72,74,76,78,80,82,84,86,88,90,92,94,96,98,100,102,104,106,108,110,112,114,-1,-1,-1,-1,-1,-1,-1,-1,-1,-1,-1,-1,-1,-1,-1,-1,-1,-1,-1,-1,-1,-1,-1,-1,-1,-1,-1,-1,-1,-1,-1,-1,-1,-1,-1,-1,-1,-1,-1,-1,-1,-1,-1,-1,-1,-1,-1,-1,-1,-1,-1,-1,-1,-1,-1,-1],"split_conditions":[1.05E1,4.5E0,1.15E1,1.5E1,5.5E0,5E-1,1.35E1,4.5E0,5E-1,2.5E0,1.25E1,1.05E1,1.95E1,4.15E1,1.45E1,2.4999E4,1.05E1,2.5584448E1,1.5E0,1.5E0,1.55E3,5E-1,3.8571636E1,9.5E0,1.25E1,6.5E0,5E-1,1.45E3,1.45E3,1.95E1,1.5E0,8E0,1.09999E5,8.5E0,6.4999E4,6.4999E4,8.5E0,5E-1,9.4999E4,5.9999E4,1.29999E5,9.5E0,1.55E3,1.45E1,1.55E3,8.5E0,1.55E1,1.999995E5,3.4999E4,1.55E3,1.79999E5,3.15E1,3.75E1,4.5E0,7.5E0,1.55E1,2.75E1,5E-1,3.5E0,7.172561E0,3.289439E1,1.8491098E1,1.154659E1,9.725306E0,7.437242E0,1.5593085E1,9.714377E0,1.6158188E1,9.526506E0,1.8010635E1,1.41791935E1,8.619811E0,1.3178503E1,7.385234E0,2.7432625E0,-1.8389265E1,1.3880955E1,1.4720791E1,1.1577082E1,5.157127E0,2.2996886E0,6.051377E0,8.2960205E0,5.5055118E0,3.4730198E0,2.222821E0,1.5090066E-1,9.5095825E0,1.5639023E1,6.594972E0,2.5033026E0,8.744075E0,5.861534E0,4.811405E0,6.924807E0,2.5602636E0,4.783069E0,7.506103E0,2.592547E0,1.4374677E0,1.1359706E0,1.8240418E0,1.4634528E0,7.354662E-1,1.0805819E0,1.1634064E0,1.573874E0,3.7140114E0,4.9482822E0,2.7630444E0,1.0380142E0,1.8235221E0,2.6600795E0,3.1432447E0,2.260447E0],"split_indices":[6,6,7,7,7,5,7,7,6,7,1,7,6,6,7,3,7,0,1,7,4,1,0,7,6,7,0,4,4,6,1,1,3,7,3,3,1,7,3,3,3,7,4,6,4,1,6,3,3,4,3,6,6,1,1,6,6,0,1,0,0,0,0,0,0,0,0,0,0,0,0,0,0,0,0,0,0,0,0,0,0,0,0,0,0,0,0,0,0,0,0,0,0,0,0,0,0,0,0,0,0,0,0,0,0,0,0,0,0,0,0,0,0,0,0],"split_type":[0,0,0,0,0,0,0,0,0,0,0,0,0,0,0,0,0,0,0,0,0,0,0,0,0,0,0,0,0,0,0,0,0,0,0,0,0,0,0,0,0,0,0,0,0,0,0,0,0,0,0,0,0,0,0,0,0,0,0,0,0,0,0,0,0,0,0,0,0,0,0,0,0,0,0,0,0,0,0,0,0,0,0,0,0,0,0,0,0,0,0,0,0,0,0,0,0,0,0,0,0,0,0,0,0,0,0,0,0,0,0,0,0,0,0],"sum_hessian":[1.1792E4,4.942E3,6.85E3,1.604E3,3.338E3,3.131E3,3.719E3,1.384E3,2.2E2,8.23E2,2.515E3,1.971E3,1.16E3,2.383E3,1.336E3,5.22E2,8.62E2,1.5E1,2.05E2,3.68E2,4.55E2,2.512E3,3E0,1.834E3,1.37E2,1.043E3,1.17E2,1.65E3,7.33E2,1.59E2,1.177E3,1.47E2,3.75E2,5.71E2,2.91E2,3.8E1,1.67E2,2.95E2,7.3E1,1.2E1,4.43E2,3.58E2,2.154E3,1.597E3,2.37E2,5.1E1,8.6E1,5.59E2,4.84E2,9.8E1,1.9E1,1.382E3,2.68E2,5.52E2,1.81E2,8.5E1,7.4E1,3.88E2,7.89E2,1.42E2,5E0,2.75E2,1E2,3.09E2,2.62E2,1.67E2,1.24E2,2.3E1,1.5E1,1.37E2,3E1,2.27E2,6.8E1,3.5E1,3.8E1,3E0,9E0,2.4E2,2.03E2,2.58E2,1E2,1.052E3,1.102E3,8.17E2,7.8E2,1.94E2,4.3E1,4.8E1,3E0,7.1E1,1.5E1,4.94E2,6.5E1,1.14E2,3.7E2,5E1,4.8E1,1.7E1,2E0,3.5E2,1.032E3,6.9E1,1.99E2,3.5E2,2.02E2,1.32E2,4.9E1,5E1,3.5E1,6.2E1,1.2E1,3.36E2,5.2E1,1.96E2,5.93E2],"tree_param":{"num_deleted":"0","num_feature":"8","num_nodes":"115","size_leaf_vector":"0"}},{"base_weights":[1.3840367E1,2.4380573E1,9.058288E0,1.8243544E1,2.8171402E1,1.3550688E1,3.8241239E0,3.547803E1,1.7151005E1,3.15837E1,2.2051588E1,9.848962E0,1.6380255E1,2.753978E0,5.688987E0,-9.773743E0,3.6716022E1,3.2578777E1,1.6483093E1,3.3158184E1,1.423803E1,1.1179957E1,2.584267E1,4.008697E0,1.0594434E1,2.0019245E1,1.3892042E1,3.1070828E0,2.440225E0,6.9046674E0,4.9451795E0,3.1098774E1,4.3944176E1,2.861553E1,6.5695496E1,1.6222462E1,3.7260044E1,3.378071E1,2.8930135E0,1.3110078E1,3.404809E1,7.718862E0,2.0517008E1,2.6278023E1,-1.510287E1,5.256678E0,-5.9056884E-1,1.3020885E1,8.654397E0,2.1741507E1,1.0467649E1,9.718329E0,1.7694906E1,2.935707E0,4.0076523E0,2.096908E0,3.2330909E0,6.0174394E0,9.782373E0,5.392082E0,2.0954483E0,3.6070175E1,2.3357958E1,1.6518433E1,4.518073E1,3.2374653E1,2.0778294E1,1.713156E1,9.007872E0,3.6208057E-1,6.95005E1,3.237515E1,4.5462833E1,-2.529496E1,1.3493526E1,1.6410976E1,1.1900787E1,9.375293E0,7.870604E1,-4.26479E0,9.807585E0,6.6300488E0,2.4884157E1,1.6613491E1,2.7800392E1,-4.532231E1,1.8892288E1,1.3990356E0,8.751846E0,-1.7147586E0,2.556108E1,1.583453E1,9.1387005E0,9.409315E0,3.771424E0,1.536518E1,2.3647453E1,4.2994146E0,1.3722949E1,9.375804E0,8.662986E1,2.4645205E1,1.5435214E1,3.4844894E0,2.5161135E0,9.8744047E-1,4.1836443E0,1.844103E0,2.5390842E0,2.9076633E0,3.8180408E0,1.4165007E0,6.8323946E0,3.9719477E0,1.0768803E1,4.401685E0,6.600895E0,2.5578203E0,-1.7422503E-2],"categories":[],"categories_nodes":[],"categories_segments":[],"categories_sizes":[],"default_left":[1,1,1,1,1,1,1,1,1,1,1,1,1,1,1,0,1,1,1,1,1,1,1,1,1,1,1,1,1,1,1,1,1,1,0,1,1,1,1,1,1,1,1,1,1,1,1,1,1,1,1,1,1,1,1,1,1,1,1,1,1,0,0,0,0,0,0,0,0,0,0,0,0,0,0,0,0,0,0,0,0,0,0,0,0,0,0,0,0,0,0,0,0,0,0,0,0,0,0,0,0,0,0,0,0,0,0,0,0,0,0,0,0,0,0,0,0,0,0],"id":6,"left_children":[1,3,5,7,9,11,13,15,17,19,21,23,25,27,29,-1,31,33,35,37,39,41,43,45,47,49,51,53,55,57,59,61,63,65,-1,67,69,71,73,75,77,79,81,83,85,87,89,91,93,95,97,99,101,103,105,107,109,111,113,115,117,-1,-1,-1,-1,-1,-1,-1,-1,-1,-1,-1,-1,-1,-1,-1,-1,-1,-1,-1,-1,-1,-1,-1,-1,-1,-1,-1,-1,-1,-1,-1,-1,-1,-1,-1,-1,-1,-1,-1,-1,-1,-1,-1,-1,-1,-1,-1,-1,-1,-1,-1,-1,-1,-1,-1,-1,-1,-1],"loss_changes":[5.9419475E5,8.509925E4,1.9074044E5,2.5903219E4,4.676975E4,4.5569312E4,7.466117E3,5.008617E3,1.3126594E4,3.931925E4,3.338397E4,8.203547E3,2.2113938E4,2.565371E2,1.2010391E3,0E0,1.9221797E3,5.207574E3,6.2890625E3,2.5054875E4,2.302039E3,6.7250273E3,1.1181469E4,1.2429001E3,7.7910625E3,1.62556875E4,2.3191688E4,1.6078223E2,3.38104E2,1.2585762E3,1.0724941E3,1.043125E3,3.7282422E2,8.003672E2,0E0,8.1031875E3,1.7818945E4,2.0005375E4,8.707914E3,2.7572266E2,5.873127E3,3.9716191E3,3.2918633E3,8.351219E3,8.0474443E3,2.2798848E3,1.4256038E3,7.9820547E3,3.414836E3,9.9423125E3,3.0533145E3,1.7734062E4,1.1697141E4,2.0837305E2,8.94187E1,9.447046E1,6.142505E1,1.4788965E3,6.450156E2,8.508906E2,1.1434564E2,0E0,0E0,0E0,0E0,0E0,0E0,0E0,0E0,0E0,0E0,0E0,0E0,0E0,0E0,0E0,0E0,0E0,0E0,0E0,0E0,0E0,0E0,0E0,0E0,0E0,0E0,0E0,0E0,0E0,0E0,0E0,0E0,0E0,0E0,0E0,0E0,0E0,0E0,0E0,0E0,0E0,0E0,0E0,0E0,0E0,0E0,0E0,0E0,0E0,0E0,0E0,0E0,0E0,0E0,0E0,0E0,0E0,0E0],"parents":[2147483647,0,0,1,1,2,2,3,3,4,4,5,5,6,6,7,7,8,8,9,9,10,10,11,11,12,12,13,13,14,14,16,16,17,17,18,18,19,19,20,20,21,21,22,22,23,23,24,24,25,25,26,26,27,27,28,28,29,29,30,30,31,31,32,32,33,33,35,35,36,36,37,37,38,38,39,39,40,40,41,41,42,42,43,43,44,44,45,45,46,46,47,47,48,48,49,49,50,50,51,51,52,52,53,53,54,54,55,55,56,56,57,57,58,58,59,59,60,60],"right_children":[2,4,6,8,10,12,14,16,18,20,22,24,26,28,30,-1,32,34,36,38,40,42,44,46,48,50,52,54,56,58,60,62,64,66,-1,68,70,72,74,76,78,80,82,84,86,88,90,92,94,96,98,100,102,104,106,108,110,112,114,116,118,-1,-1,-1,-1,-1,-1,-1,-1,-1,-1,-1,-1,-1,-1,-1,-1,-1,-1,-1,-1,-1,-1,-1,-1,-1,-1,-1,-1,-1,-1,-1,-1,-1,-1,-1,-1,-1,-1,-1,-1,-1,-1,-1,-1,-1,-1,-1,-1,-1,-1,-1,-1,-1,-1,-1,-1,-1,-1],"split_conditions":[8.5E0,5E-1,1.15E1,2.5E0,1.09999E5,1.55E3,1.35E1,1.4E3,3.5E0,1.5E0,1.55E3,5E-1,6.5E0,3.75E1,1.95E1,-2.932123E0,5E-1,2.5E0,1.15E1,5E-1,1.05E1,1.05E1,5E-1,1.999995E5,1.25E1,1.75E1,7.5E0,5.5E0,1.45E3,5E-1,1.999995E5,5.5E0,2.4999E4,1E0,1.9708649E1,1.999995E5,1.999995E5,1.35E1,1.5E0,1.5E0,4E0,3.5E0,3.5E0,5E-1,4E0,3.4999E4,5E-1,9.5E0,2.35E1,5E-1,5E-1,1.25E1,9E0,1.49999E5,2.45E1,4.5E0,1.09999E5,1.25E1,2.4999E4,6.4999E4,7.5E0,1.0821053E1,7.0073876E0,4.95553E0,1.3554219E1,9.712397E0,6.2334886E0,5.139468E0,2.7023616E0,1.08624175E-1,2.0850151E1,9.712545E0,1.363885E1,-7.588488E0,4.048058E0,4.923293E0,3.5702364E0,2.812588E0,2.3611813E1,-1.2794371E0,2.9422755E0,1.9890147E0,7.4652476E0,4.9840474E0,8.340118E0,-1.3596694E1,5.6676865E0,4.197107E-1,2.625554E0,-5.144276E-1,7.6683245E0,4.750359E0,2.7416103E0,2.8227947E0,1.1314273E0,4.6095543E0,7.0942364E0,1.2898245E0,4.1168847E0,2.8127413E0,2.5988958E1,7.393562E0,4.630564E0,1.0453469E0,7.548341E-1,2.9623216E-1,1.2550933E0,5.5323094E-1,7.617253E-1,8.72299E-1,1.1454123E0,4.249502E-1,2.0497184E0,1.1915843E0,3.230641E0,1.3205056E0,1.9802686E0,7.6734614E-1,-5.226751E-3],"split_indices":[6,5,7,6,3,4,7,4,7,0,4,1,7,6,6,0,0,7,1,2,1,7,2,3,6,6,7,1,4,0,3,1,3,7,0,3,3,7,1,6,6,6,6,7,1,3,0,7,6,7,5,1,7,3,6,1,3,6,3,3,1,0,0,0,0,0,0,0,0,0,0,0,0,0,0,0,0,0,0,0,0,0,0,0,0,0,0,0,0,0,0,0,0,0,0,0,0,0,0,0,0,0,0,0,0,0,0,0,0,0,0,0,0,0,0,0,0,0,0],"split_type":[0,0,0,0,0,0,0,0,0,0,0,0,0,0,0,0,0,0,0,0,0,0,0,0,0,0,0,0,0,0,0,0,0,0,0,0,0,0,0,0,0,0,0,0,0,0,0,0,0,0,0,0,0,0,0,0,0,0,0,0,0,0,0,0,0,0,0,0,0,0,0,0,0,0,0,0,0,0,0,0,0,0,0,0,0,0,0,0,0,0,0,0,0,0,0,0,0,0,0,0,0,0,0,0,0,0,0,0,0,0,0,0,0,0,0,0,0,0,0],"sum_hessian":[1.1792E4,3.679E3,8.113E3,1.407E3,2.272E3,4.365E3,3.748E3,8.2E1,1.325E3,1.456E3,8.16E2,1.893E3,2.472E3,2.383E3,1.365E3,2E0,8E1,5.3E1,1.272E3,1.334E3,1.22E2,2.12E2,6.04E2,2.15E2,1.678E3,1.001E3,1.471E3,1.117E3,1.266E3,5.15E2,8.5E2,4.8E1,3.2E1,4.9E1,4E0,1.258E3,1.4E1,1.307E3,2.7E1,1.17E2,5E0,1.56E2,5.6E1,5.98E2,6E0,1.69E2,4.6E1,7.43E2,9.35E2,8.47E2,1.54E2,7.03E2,7.68E2,9.42E2,1.75E2,8.86E2,3.8E2,3.96E2,1.19E2,7.34E2,1.16E2,2.7E1,2.1E1,2E0,3E1,3.1E1,1.8E1,1.116E3,1.42E2,7E0,7E0,1.17E3,1.37E2,7E0,2E1,2.8E1,8.9E1,4E0,1E0,2.3E1,1.33E2,1.4E1,4.2E1,8.3E1,5.15E2,3E0,3E0,8.1E1,8.8E1,4.5E1,1E0,4.29E2,3.14E2,8.09E2,1.26E2,1.97E2,6.5E2,5.4E1,1E2,7.01E2,2E0,1.86E2,5.82E2,4.05E2,5.37E2,1E1,1.65E2,5.67E2,3.19E2,2.48E2,1.32E2,6E1,3.36E2,1.8E1,1.01E2,4.06E2,3.28E2,9.5E1,2.1E1],"tree_param":{"num_deleted":"0","num_feature":"8","num_nodes":"119","size_leaf_vector":"0"}},{"base_weights":[9.710841E0,1.4559025E1,4.435252E0,1.9866772E1,1.168528E1,7.483677E0,2.3715005E0,2.2380222E1,1.554974E1,1.7202398E1,9.943009E0,6.014554E0,1.1042501E1,3.4490764E0,1.8154224E0,1.1055047E1,2.3794922E1,3.244485E1,1.4055411E1,1.3697254E1,2.1015718E1,9.845379E0,8.143636E1,5.2368345E0,8.96171E0,9.893014E0,1.548202E1,3.8907838E0,1.6136074E0,1.6628109E0,2.4103723E0,7.0943344E-1,3.0008867E1,2.4765669E1,1.015104E1,6.5031586E1,2.3674229E1,1.8276163E1,7.303248E0,1.5493785E1,5.956751E0,3.3583202E1,1.9759808E1,4.581813E0,1.0795014E1,5.033695E0,1.4848611E1,1.643593E1,5.679445E0,-1.56501E-1,1.0778846E1,8.365984E0,1.8183498E1,3.6676307E0,7.7136846E0,1.9287434E0,-5.3231764E0,1.6852897E0,-1.0855682E0,2.5645342E0,1.2744324E0,-1.5480842E1,1.0882196E1,3.4790775E1,-2.3811998E1,1.8914751E1,2.7417233E1,8.609856E0,2.8237726E1,8.353214E0,3.0251535E1,1.6298182E1,3.193696E1,6.7573776E0,2.3231804E1,1.7886501E1,9.131374E0,9.511761E0,-7.192653E0,4.073868E1,2.0303814E1,2.1714466E1,1.2618738E1,7.339948E0,9.3471184E-2,1.2519781E1,8.431387E0,4.6254306E0,8.446147E0,2.6688145E1,5.780893E0,5.304811E0,2.144866E1,-7.6786995E-1,6.662948E0,-6.411312E0,1.7057272E1,1.52096615E1,9.02373E0,2.4076315E1,5.882623E0,1.849188E1,2.356903E0,3.709986E0,-9.866184E0,1.9886715E1,4.1732593E0,4.352117E0,1.315253E0,-1.1036285E1,-2.5153632E0,1.5386891E0,2.1946442E0,7.983818E-1,-2.430244E0,2.2622247E0,2.9936202E0,3.1023936E0,7.0538867E-1],"categories":[],"categories_nodes":[],"categories_segments":[],"categories_sizes":[],"default_left":[1,1,1,1,1,1,1,1,1,1,1,1,1,1,1,1,1,1,1,1,1,1,0,1,1,1,1,1,1,1,1,1,1,1,1,0,1,1,1,1,1,1,1,1,1,1,1,1,1,1,1,1,1,1,1,1,1,1,1,1,1,0,0,0,0,0,0,0,0,0,0,0,0,0,0,0,0,0,0,0,0,0,0,0,0,0,0,0,0,0,0,0,0,0,0,0,0,0,0,0,0,0,0,0,0,0,0,0,0,0,0,0,0,0,0,0,0,0,0],"id":7,"left_children":[1,3,5,7,9,11,13,15,17,19,21,23,25,27,29,31,33,35,37,39,41,43,-1,45,47,49,51,53,55,57,59,61,63,65,67,-1,69,71,73,75,77,79,81,83,85,87,89,91,93,95,97,99,101,103,105,107,109,111,113,115,117,-1,-1,-1,-1,-1,-1,-1,-1,-1,-1,-1,-1,-1,-1,-1,-1,-1,-1,-1,-1,-1,-1,-1,-1,-1,-1,-1,-1,-1,-1,-1,-1,-1,-1,-1,-1,-1,-1,-1,-1,-1,-1,-1,-1,-1,-1,-1,-1,-1,-1,-1,-1,-1,-1,-1,-1,-1,-1],"loss_changes":[3.0156525E5,9.3498375E4,3.5521195E4,2.3056812E4,3.8172438E4,1.1854211E4,2.0130977E3,2.15425E4,1.9665703E4,1.249025E4,2.0375219E4,3.657039E3,3.2404453E3,9.228291E2,1.9801367E2,2.998031E4,1.57615E4,1.6752008E4,2.0784938E4,6.8746406E3,6.53375E3,1.5100906E4,0E0,2.4264492E3,8.1495273E3,4.728746E3,2.443088E3,7.5911426E2,4.9993774E2,1.1142822E2,7.588501E1,1.6638447E4,1.472623E4,1.6981312E4,2.0426191E3,0E0,4.9873945E3,1.1665875E4,2.312376E3,6.017383E3,4.5560557E3,2.973664E3,5.546625E3,5.755759E3,1.0359344E4,1.7107695E3,2.6370151E3,5.577545E3,1.4952407E3,4.8467915E3,3.6577305E3,1.3799307E3,4.2983984E2,5.376045E2,2.0718923E3,3.1391992E2,1.326532E2,1.2804541E2,3.9939793E1,4.472534E1,5.606225E1,0E0,0E0,0E0,0E0,0E0,0E0,0E0,0E0,0E0,0E0,0E0,0E0,0E0,0E0,0E0,0E0,0E0,0E0,0E0,0E0,0E0,0E0,0E0,0E0,0E0,0E0,0E0,0E0,0E0,0E0,0E0,0E0,0E0,0E0,0E0,0E0,0E0,0E0,0E0,0E0,0E0,0E0,0E0,0E0,0E0,0E0,0E0,0E0,0E0,0E0,0E0,0E0,0E0,0E0,0E0,0E0,0E0,0E0],"parents":[2147483647,0,0,1,1,2,2,3,3,4,4,5,5,6,6,7,7,8,8,9,9,10,10,11,11,12,12,13,13,14,14,15,15,16,16,17,17,18,18,19,19,20,20,21,21,23,23,24,24,25,25,26,26,27,27,28,28,29,29,30,30,31,31,32,32,33,33,34,34,36,36,37,37,38,38,39,39,40,40,41,41,42,42,43,43,44,44,45,45,46,46,47,47,48,48,49,49,50,50,51,51,52,52,53,53,54,54,55,55,56,56,57,57,58,58,59,59,60,60],"right_children":[2,4,6,8,10,12,14,16,18,20,22,24,26,28,30,32,34,36,38,40,42,44,-1,46,48,50,52,54,56,58,60,62,64,66,68,-1,70,72,74,76,78,80,82,84,86,88,90,92,94,96,98,100,102,104,106,108,110,112,114,116,118,-1,-1,-1,-1,-1,-1,-1,-1,-1,-1,-1,-1,-1,-1,-1,-1,-1,-1,-1,-1,-1,-1,-1,-1,-1,-1,-1,-1,-1,-1,-1,-1,-1,-1,-1,-1,-1,-1,-1,-1,-1,-1,-1,-1,-1,-1,-1,-1,-1,-1,-1,-1,-1,-1,-1,-1,-1,-1],"split_conditions":[1.25E1,5.5E0,2.15E1,9.4999E4,5.5E0,5E-1,2.95E1,5E-1,2.5E0,2.5E0,1.25E1,1.55E3,5E-1,1.999995E5,1.55E3,5.4999E4,1.5E0,6E0,8.5E0,1.5E0,5E-1,5E-1,2.443091E1,9.5E0,6E0,5E-1,5.4999E4,5E-1,8.5E0,5E-1,4.45E1,4.5E0,7.5E0,1.55E3,1.05E1,1.9509476E1,1.55E3,7.5E0,1.5E1,4.5E0,5E-1,4E0,1.69999E5,5E-1,1.49999E5,5E-1,9.5E0,5E-1,5E-1,1.05E1,2E0,5E-1,9.5E0,5E-1,2.25E1,2E0,2.25E1,5.5E0,3.5E0,9.4999E4,1.4999E4,-4.644253E0,3.2646592E0,1.0437233E1,-7.1436E0,5.6744256E0,8.22517E0,2.5829568E0,8.471318E0,2.5059643E0,9.075461E0,4.889455E0,9.581088E0,2.0272133E0,6.9695415E0,5.3659506E0,2.7394123E0,2.8535283E0,-2.1577961E0,1.2221605E1,6.0911446E0,6.51434E0,3.7856216E0,2.2019846E0,2.8041357E-2,3.7559345E0,2.529416E0,1.3876293E0,2.5338442E0,8.006444E0,1.734268E0,1.5914434E0,6.4345984E0,-2.30361E-1,1.9988846E0,-1.9233937E0,5.117182E0,4.5628986E0,2.7071192E0,7.2228947E0,1.7647871E0,5.5475645E0,7.0707095E-1,1.1129959E0,-2.9598553E0,5.966015E0,1.2519778E0,1.3056352E0,3.9457592E-1,-3.3108857E0,-7.54609E-1,4.6160677E-1,6.5839326E-1,2.3951454E-1,-7.290732E-1,6.786674E-1,8.980861E-1,9.307181E-1,2.116166E-1],"split_indices":[6,6,6,3,7,5,6,1,6,7,1,4,0,3,4,3,0,7,7,7,5,1,0,1,7,1,3,5,1,0,6,7,7,4,1,0,4,7,7,1,5,1,3,2,3,0,7,7,1,7,7,1,1,2,6,7,6,1,1,3,3,0,0,0,0,0,0,0,0,0,0,0,0,0,0,0,0,0,0,0,0,0,0,0,0,0,0,0,0,0,0,0,0,0,0,0,0,0,0,0,0,0,0,0,0,0,0,0,0,0,0,0,0,0,0,0,0,0,0],"split_type":[0,0,0,0,0,0,0,0,0,0,0,0,0,0,0,0,0,0,0,0,0,0,0,0,0,0,0,0,0,0,0,0,0,0,0,0,0,0,0,0,0,0,0,0,0,0,0,0,0,0,0,0,0,0,0,0,0,0,0,0,0,0,0,0,0,0,0,0,0,0,0,0,0,0,0,0,0,0,0,0,0,0,0,0,0,0,0,0,0,0,0,0,0,0,0,0,0,0,0,0,0,0,0,0,0,0,0,0,0,0,0,0,0,0,0,0,0,0,0],"sum_hessian":[1.1792E4,6.144E3,5.648E3,2.156E3,3.988E3,2.279E3,3.369E3,1.36E3,7.96E2,9.55E2,3.033E3,1.615E3,6.64E2,1.145E3,2.224E3,1.52E2,1.208E3,6.3E1,7.33E2,5E2,4.55E2,3.03E3,3E0,1.28E3,3.35E2,5.3E2,1.34E2,9.22E2,2.23E2,1.773E3,4.51E2,9.9E1,5.3E1,1.127E3,8.1E1,1.2E1,5.1E1,4.5E2,2.83E2,4.05E2,9.5E1,3.9E1,4.16E2,4.64E2,2.566E3,1.255E3,2.5E1,1.01E2,2.34E2,4.3E1,4.87E2,3.8E1,9.6E1,8.73E2,4.9E1,2.14E2,9E0,1.759E3,1.4E1,3.96E2,5.5E1,3.8E1,6.1E1,4.9E1,4E0,3.54E2,7.73E2,7.6E1,5E0,1.6E1,3.5E1,3.95E2,5.5E1,2.75E2,8E0,2.93E2,1.12E2,7.5E1,2E1,2.4E1,1.5E1,3.25E2,9.1E1,2.87E2,1.77E2,1.481E3,1.085E3,1.123E3,1.32E2,1E1,1.5E1,3.2E1,6.9E1,3.1E1,2.03E2,3.2E1,1.1E1,1.36E2,3.51E2,4E0,3.4E1,9.4E1,2E0,8.71E2,2E0,1E1,3.9E1,4.2E1,1.72E2,2E0,7E0,1.369E3,3.9E2,6E0,8E0,2.36E2,1.6E2,1.2E1,4.3E1],"tree_param":{"num_deleted":"0","num_feature":"8","num_nodes":"119","size_leaf_vector":"0"}},{"base_weights":[6.815167E0,1.1569978E1,4.000123E0,1.610937E1,9.922617E0,6.2380004E0,1.8054318E0,3.453382E1,1.5183601E1,1.39658985E1,8.687109E0,4.3399835E0,7.7273183E0,2.557203E0,1.2865871E0,7.586748E1,2.4797506E1,-4.229187E1,1.5585972E1,9.126482E0,1.7647879E1,8.358752E0,2.5074472E1,5.1435537E0,1.3670038E0,8.75105E0,4.8624754E0,1.5738183E0,3.0967164E0,1.3935357E0,8.378443E-1,7.933611E1,2.2324905E1,-2.2250149E1,3.2410908E1,-1.2317797E2,5.1998267E0,1.6563728E1,4.7682004E0,1.1627701E1,4.178868E-1,1.9859285E1,1.5713084E1,9.052929E0,2.2643774E0,3.337998E1,1.2806439E1,2.8430674E0,6.462739E0,1.0431972E0,1.6853207E1,5.1218324E0,1.0898708E1,3.1574798E0,1.0094736E1,-8.755119E0,1.7840332E0,2.0246532E0,3.6536448E0,1.2756604E0,1.860815E0,4.6028015E-1,1.4216775E0,2.9158518E1,-4.8645317E1,5.377224E1,1.5929509E1,-1.0880625E1,4.280104E1,1.1764852E1,1.838081E1,8.951995E0,2.8282275E0,-1.5976423E0,1.2888714E1,-3.2013184E1,2.2391036E0,1.7989489E1,3.8378944E1,-1.3107208E0,1.6406021E1,5.514025E0,1.0153773E1,4.6367993E0,-1.765027E0,3.522506E1,-8.218582E0,3.3713088E0,4.2324593E1,2.3647187E0,1.9292982E1,7.001079E0,1.9846998E0,7.8467226E-1,1.5260554E1,3.9052582E-1,2.3360174E1,4.857053E0,5.301662E1,1.9214203E1,1.0131978E1,3.922403E0,-1.0546047E1,1.3100819E1,4.842624E0,2.0908175E0,4.0095174E-1,-9.553543E-1,2.1849499E0,6.00632E0,2.7754805E0,9.265592E-1,1.4849436E0,2.3978686E0,1.6253961E0,1.2997403E0,-6.592824E-2,1.6371464E-2,2.3771217E0],"categories":[],"categories_nodes":[],"categories_segments":[],"categories_sizes":[],"default_left":[1,1,1,1,1,1,1,1,1,1,1,1,1,1,1,1,1,1,1,1,1,1,1,1,1,1,1,1,1,1,1,0,0,1,1,0,1,1,1,1,1,1,1,1,1,1,1,1,1,1,1,1,1,1,1,0,1,1,1,1,1,1,1,0,0,0,0,0,0,0,0,0,0,0,0,0,0,0,0,0,0,0,0,0,0,0,0,0,0,0,0,0,0,0,0,0,0,0,0,0,0,0,0,0,0,0,0,0,0,0,0,0,0,0,0,0,0,0,0],"id":8,"left_children":[1,3,5,7,9,11,13,15,17,19,21,23,25,27,29,31,33,35,37,39,41,43,45,47,49,51,53,55,57,59,61,-1,-1,63,65,-1,67,69,71,73,75,77,79,81,83,85,87,89,91,93,95,97,99,101,103,-1,105,107,109,111,113,115,117,-1,-1,-1,-1,-1,-1,-1,-1,-1,-1,-1,-1,-1,-1,-1,-1,-1,-1,-1,-1,-1,-1,-1,-1,-1,-1,-1,-1,-1,-1,-1,-1,-1,-1,-1,-1,-1,-1,-1,-1,-1,-1,-1,-1,-1,-1,-1,-1,-1,-1,-1,-1,-1,-1,-1,-1],"loss_changes":[1.5780306E5,3.263125E4,3.6377664E4,1.9363812E4,1.596425E4,1.0334984E4,1.4562871E3,2.0252734E4,2.6375797E4,1.3238547E4,1.3075875E4,3.8511992E3,5.9814844E3,8.052754E2,1.0518335E2,8.602734E1,1.7198014E4,3.1371852E4,1.160875E4,7.1178867E3,1.5106406E3,1.02259375E4,4.4633496E3,3.8388203E3,1.712433E3,1.172918E4,4.8122197E3,1.194633E3,5.80708E2,9.611035E1,9.391202E1,0E0,0E0,1.0917009E4,1.3226016E4,0E0,4.0935686E3,8.617094E3,7.295112E2,4.2566367E3,4.4424175E3,6.062039E3,2.7582734E3,8.4134375E3,2.3884863E3,2.4385742E3,5.7059717E3,3.6133672E3,1.9315469E3,1.2340342E3,7.407322E2,6.8948994E3,5.8559062E3,4.3495283E3,2.0364004E3,0E0,2.2531787E2,1.6402258E2,1.3200547E3,1.0317456E2,4.1365356E1,1.1581921E2,2.255333E2,0E0,0E0,0E0,0E0,0E0,0E0,0E0,0E0,0E0,0E0,0E0,0E0,0E0,0E0,0E0,0E0,0E0,0E0,0E0,0E0,0E0,0E0,0E0,0E0,0E0,0E0,0E0,0E0,0E0,0E0,0E0,0E0,0E0,0E0,0E0,0E0,0E0,0E0,0E0,0E0,0E0,0E0,0E0,0E0,0E0,0E0,0E0,0E0,0E0,0E0,0E0,0E0,0E0,0E0,0E0,0E0],"parents":[2147483647,0,0,1,1,2,2,3,3,4,4,5,5,6,6,7,7,8,8,9,9,10,10,11,11,12,12,13,13,14,14,15,15,16,16,17,17,18,18,19,19,20,20,21,21,22,22,23,23,24,24,25,25,26,26,27,27,28,28,29,29,30,30,33,33,34,34,36,36,37,37,38,38,39,39,40,40,41,41,42,42,43,43,44,44,45,45,46,46,47,47,48,48,49,49,50,50,51,51,52,52,53,53,54,54,56,56,57,57,58,58,59,59,60,60,61,61,62,62],"right_children":[2,4,6,8,10,12,14,16,18,20,22,24,26,28,30,32,34,36,38,40,42,44,46,48,50,52,54,56,58,60,62,-1,-1,64,66,-1,68,70,72,74,76,78,80,82,84,86,88,90,92,94,96,98,100,102,104,-1,106,108,110,112,114,116,118,-1,-1,-1,-1,-1,-1,-1,-1,-1,-1,-1,-1,-1,-1,-1,-1,-1,-1,-1,-1,-1,-1,-1,-1,-1,-1,-1,-1,-1,-1,-1,-1,-1,-1,-1,-1,-1,-1,-1,-1,-1,-1,-1,-1,-1,-1,-1,-1,-1,-1,-1,-1,-1,-1,-1,-1],"split_conditions":[9.5E0,3.5E0,1.15E1,5E-1,5.5E0,1.55E3,2.95E1,5E-1,1.5E0,2.5E0,1.05E1,1.999995E5,1.89999E5,1.5E0,4.35E1,2.9999E4,1.4999E4,2.4999E4,1.5E0,5.5E0,1.09999E5,1.999995E5,5.5E0,3.4999E4,5E-1,6.4999E4,1.05E1,1.05E1,4.4999E4,1.55E3,4.5E0,2.3800835E1,6.697472E0,3E0,2.5E0,-3.6953392E1,6.4999E4,1.55E3,1.5E0,4.5E0,1.4999E4,8E0,5E-1,3.4999E4,9.5E0,1.25E1,5E-1,9.5E0,2.25E1,1.05E1,1.4E3,1.25E1,9.4999E4,9E0,1.35E1,-2.626536E0,5E-1,1.25E1,9.4999E4,2.5E0,3.85E1,1.5E0,4.55E1,8.747556E0,-1.45935955E1,1.6131672E1,4.778853E0,-3.2641876E0,1.2840313E1,3.5294557E0,5.514243E0,2.6855986E0,8.484683E-1,-4.7929272E-1,3.8666143E0,-9.603955E0,6.717311E-1,5.396847E0,1.1513683E1,-3.9321625E-1,4.9218063E0,1.6542076E0,3.046132E0,1.3910398E0,-5.295081E-1,1.0567518E1,-2.4655747E0,1.0113927E0,1.2697378E1,7.094156E-1,5.7878947E0,2.100324E0,5.9541E-1,2.3540169E-1,4.5781665E0,1.1715775E-1,7.0080523E0,1.4571159E0,1.5904986E1,5.7642612E0,3.0395935E0,1.176721E0,-3.1638143E0,3.9302456E0,1.4527873E0,6.2724525E-1,1.20285526E-1,-2.8660628E-1,6.55485E-1,1.8018961E0,8.3264416E-1,2.7796778E-1,4.4548312E-1,7.193606E-1,4.8761886E-1,3.899221E-1,-1.9778473E-2,4.9114395E-3,7.1313655E-1],"split_indices":[6,6,7,7,7,4,6,6,7,7,1,3,3,1,6,3,3,3,0,1,3,3,6,3,0,3,7,6,3,4,1,0,0,1,6,0,3,4,6,6,3,1,1,3,7,1,2,1,6,7,4,1,3,7,6,0,1,6,3,1,6,1,6,0,0,0,0,0,0,0,0,0,0,0,0,0,0,0,0,0,0,0,0,0,0,0,0,0,0,0,0,0,0,0,0,0,0,0,0,0,0,0,0,0,0,0,0,0,0,0,0,0,0,0,0,0,0,0,0],"split_type":[0,0,0,0,0,0,0,0,0,0,0,0,0,0,0,0,0,0,0,0,0,0,0,0,0,0,0,0,0,0,0,0,0,0,0,0,0,0,0,0,0,0,0,0,0,0,0,0,0,0,0,0,0,0,0,0,0,0,0,0,0,0,0,0,0,0,0,0,0,0,0,0,0,0,0,0,0,0,0,0,0,0,0,0,0,0,0,0,0,0,0,0,0,0,0,0,0,0,0,0,0,0,0,0,0,0,0,0,0,0,0,0,0,0,0,0,0,0,0],"sum_hessian":[1.1792E4,4.384E3,7.408E3,1.165E3,3.219E3,3.667E3,3.741E3,5.4E1,1.111E3,7.51E2,2.468E3,1.614E3,2.053E3,1.526E3,2.215E3,9E0,4.5E1,7E0,1.104E3,3.26E2,4.25E2,2.421E3,4.7E1,1.27E3,3.44E2,1.511E3,5.42E2,5.42E2,9.84E2,1.787E3,4.28E2,8E0,1E0,6E0,3.9E1,2E0,5E0,1.012E3,9.2E1,2.53E2,7.3E1,1.94E2,2.31E2,2.173E3,2.48E2,2.7E1,2E1,4.64E2,8.06E2,3.38E2,6E0,5.63E2,9.48E2,4.1E2,1.32E2,1E1,5.32E2,3.38E2,6.46E2,1.43E3,3.57E2,2.61E2,1.67E2,2E0,4E0,1.6E1,2.3E1,4E0,1E0,2.8E2,7.32E2,2.8E1,6.4E1,2.2E1,2.31E2,3E0,7E1,1.78E2,1.6E1,9E0,2.22E2,5.17E2,1.656E3,1.56E2,9.2E1,2.6E1,1E0,1.6E1,4E0,4.52E2,1.2E1,7.19E2,8.7E1,3.33E2,5E0,2E0,4E0,5.61E2,2E0,7.8E1,8.7E2,3.89E2,2.1E1,8.3E1,4.9E1,4.35E2,9.7E1,1.7E1,3.21E2,1.74E2,4.72E2,5.38E2,8.92E2,1.06E2,2.51E2,1E2,1.61E2,6.8E1,9.9E1],"tree_param":{"num_deleted":"0","num_feature":"8","num_nodes":"119","size_leaf_vector":"0"}},{"base_weights":[4.781544E0,2.936504E0,8.51201E0,5.31454E0,1.770501E0,1.2244749E1,7.2780046E0,6.883952E0,3.4943523E0,2.7905896E0,9.666356E-1,2.5002087E1,1.1463678E1,8.33578E0,4.1629834E0,5.9134755E0,1.12758665E1,1.4883809E0,9.811488E0,2.995288E0,-1.8123224E0,8.59758E-1,2.2892842E0,5.615706E1,1.7685743E1,-3.3026466E1,1.1843455E1,4.1578927E0,9.85597E0,4.4994864E0,-7.66864E0,4.923409E0,9.908908E0,8.63404E0,3.2873466E1,2.812673E0,-4.6844883E0,2.199177E1,4.3088183E0,3.9380574E0,1.9724821E0,-1.2949055E1,-4.310293E-1,7.094096E-1,1.2994478E0,5.049822E0,-1.63133E-1,-1.6410252E1,2.32104E1,-9.854238E1,5.235901E0,1.0669197E1,1.9172287E1,6.0664287E0,8.521354E-2,-5.153825E0,1.0087083E1,1.5324804E0,5.3154573E0,-2.7738033E1,6.81545E0,1.0998341E1,3.7602763E0,8.856375E0,2.6473E1,7.1237288E0,1.4685008E1,-3.47524E0,5.8080406E1,4.661036E0,3.7169057E-1,1.2525884E0,-7.2700577E0,3.652681E1,1.9505539E1,1.3370216E1,6.291661E-1,3.53624E0,9.714581E0,-2.7865508E0,2.6250765E0,2.3221512E0,-1.470839E1,-2.6442351E0,5.7654634E0,-2.355105E-1,8.386077E-1,1.2102628E0,3.7536323E0,1.0296519E0,8.22048E0,-2.92756E0,1.9848274E0,2.3326813E1,-3.697044E1,3.8589478E1,1.1349784E1,-8.269272E0,3.6380882E1,5.193099E0,1.3345319E1,3.9666645E1,1.641469E1,6.8543053E0,-6.529738E0,-8.92851E0,3.78424E0,-1.0510534E1,-1.4837673E0,1.2057263E1,8.955168E0,2.9208508E0,-5.970484E0,1.1007326E0,5.856839E0,7.368048E0,-5.729651E1,-3.527379E0,1.946998E1],"categories":[],"categories_nodes":[],"categories_segments":[],"categories_sizes":[],"default_left":[1,1,1,1,1,1,1,1,1,1,1,1,1,1,1,1,1,1,1,1,1,1,1,0,1,1,1,1,1,1,1,1,1,1,1,1,1,1,1,1,1,1,1,1,1,1,1,1,1,0,1,1,1,1,1,1,1,1,1,1,1,0,0,0,0,0,0,0,0,0,0,0,0,0,0,0,0,0,0,0,0,0,0,0,0,0,0,0,0,0,0,0,0,0,0,0,0,0,0,0,0,0,0,0,0,0,0,0,0,0,0,0,0,0,0,0,0,0,0],"id":9,"left_children":[1,3,5,7,9,11,13,15,17,19,21,23,25,27,29,31,33,35,37,39,41,43,45,-1,47,49,51,53,55,57,59,61,63,65,67,69,71,73,75,77,79,81,83,85,87,89,91,93,95,-1,97,99,101,103,105,107,109,111,113,115,117,-1,-1,-1,-1,-1,-1,-1,-1,-1,-1,-1,-1,-1,-1,-1,-1,-1,-1,-1,-1,-1,-1,-1,-1,-1,-1,-1,-1,-1,-1,-1,-1,-1,-1,-1,-1,-1,-1,-1,-1,-1,-1,-1,-1,-1,-1,-1,-1,-1,-1,-1,-1,-1,-1,-1,-1,-1,-1],"loss_changes":[8.114459E4,2.18735E4,1.7884344E4,7.3917344E3,4.340918E3,9.358906E3,9.636094E3,5.8706406E3,1.5242478E4,2.204543E3,4.1702734E2,1.1543547E4,1.5834383E4,1.3868125E4,3.0046104E3,4.472625E3,1.4037508E4,7.493011E3,1.934222E4,2.147375E3,1.5327277E3,1.8047485E2,1.4969917E3,0E0,9.045844E3,2.0570312E4,7.6010312E3,4.554376E3,5.6196406E3,1.7494941E3,6.2934727E3,6.4451875E3,3.7056875E3,1.951627E3,2.4940309E4,3.4001802E3,2.495923E3,2.5398984E3,6.6934883E3,2.6627734E3,3.342857E3,3.296941E2,1.2495156E3,2.5009924E2,1.4823279E2,1.3171807E3,7.064806E2,6.5814136E3,6.8582344E3,0E0,2.8245535E3,1.1419984E4,6.3567656E3,4.0045205E3,6.302084E3,4.758907E2,3.4177812E3,1.663308E3,1.2918828E3,9.761305E3,1.7701655E3,0E0,0E0,0E0,0E0,0E0,0E0,0E0,0E0,0E0,0E0,0E0,0E0,0E0,0E0,0E0,0E0,0E0,0E0,0E0,0E0,0E0,0E0,0E0,0E0,0E0,0E0,0E0,0E0,0E0,0E0,0E0,0E0,0E0,0E0,0E0,0E0,0E0,0E0,0E0,0E0,0E0,0E0,0E0,0E0,0E0,0E0,0E0,0E0,0E0,0E0,0E0,0E0,0E0,0E0,0E0,0E0,0E0,0E0],"parents":[2147483647,0,0,1,1,2,2,3,3,4,4,5,5,6,6,7,7,8,8,9,9,10,10,11,11,12,12,13,13,14,14,15,15,16,16,17,17,18,18,19,19,20,20,21,21,22,22,24,24,25,25,26,26,27,27,28,28,29,29,30,30,31,31,32,32,33,33,34,34,35,35,36,36,37,37,38,38,39,39,40,40,41,41,42,42,43,43,44,44,45,45,46,46,47,47,48,48,50,50,51,51,52,52,53,53,54,54,55,55,56,56,57,57,58,58,59,59,60,60],"right_children":[2,4,6,8,10,12,14,16,18,20,22,24,26,28,30,32,34,36,38,40,42,44,46,-1,48,50,52,54,56,58,60,62,64,66,68,70,72,74,76,78,80,82,84,86,88,90,92,94,96,-1,98,100,102,104,106,108,110,112,114,116,118,-1,-1,-1,-1,-1,-1,-1,-1,-1,-1,-1,-1,-1,-1,-1,-1,-1,-1,-1,-1,-1,-1,-1,-1,-1,-1,-1,-1,-1,-1,-1,-1,-1,-1,-1,-1,-1,-1,-1,-1,-1,-1,-1,-1,-1,-1,-1,-1,-1,-1,-1,-1,-1,-1,-1,-1,-1,-1],"split_conditions":[5E-1,1.15E1,3.5E0,9.5E0,2.35E1,5E-1,1.69999E5,5.5E0,1.05E1,5E-1,1.6E1,5E-1,1.5E0,3.4999E4,5E-1,7.5E0,5E-1,1.55E3,1.25E1,9.5E0,1.4999E4,5.5E0,4.5E0,1.6847118E1,1.4999E4,2.4999E4,1.35E1,3.5E0,1.4E3,1.55E3,5E-1,6E0,1.55E3,7.5E0,1.79999E5,1.29999E5,6.5E0,1.4999E4,1.5E0,5E-1,1.05E1,1.25E1,1.45E1,2.75E1,5E-1,4.4999E4,5.5E0,3E0,2.5E0,-2.9562716E1,6.4999E4,1.5E0,5E-1,5E-1,1.55E3,6.5E0,1.09999E5,5.5E0,5E-1,1.999995E5,1.05E1,3.2995024E0,1.128083E0,2.6569126E0,7.9419003E0,2.1371188E0,4.405503E0,-1.042572E0,1.7424122E1,1.3983109E0,1.1150718E-1,3.7577653E-1,-2.1810174E0,1.0958043E1,5.8516617E0,4.011065E0,1.8874985E-1,1.0608721E0,2.9143744E0,-8.359653E-1,7.87523E-1,6.966454E-1,-4.412517E0,-7.932706E-1,1.729639E0,-7.0653155E-2,2.5158232E-1,3.6307883E-1,1.1260897E0,3.088956E-1,2.466144E0,-8.7826806E-1,5.9544826E-1,6.998044E0,-1.1091132E1,1.1576843E1,3.4049354E0,-2.4807816E0,1.0914265E1,1.5579298E0,4.003596E0,1.1899994E1,4.924407E0,2.0562916E0,-1.9589214E0,-2.678553E0,1.135272E0,-3.1531603E0,-4.451302E-1,3.6171792E0,2.6865504E0,8.762553E-1,-1.7911452E0,3.3021978E-1,1.7570518E0,2.2104146E0,-1.7188953E1,-1.0582137E0,5.8409944E0],"split_indices":[5,6,6,7,6,7,3,1,7,2,7,6,7,3,2,7,2,4,7,7,3,1,1,0,3,3,7,1,4,4,1,7,4,7,3,3,6,3,6,0,7,6,6,6,0,3,1,1,6,0,3,6,6,2,4,6,3,1,7,3,7,0,0,0,0,0,0,0,0,0,0,0,0,0,0,0,0,0,0,0,0,0,0,0,0,0,0,0,0,0,0,0,0,0,0,0,0,0,0,0,0,0,0,0,0,0,0,0,0,0,0,0,0,0,0,0,0,0,0],"split_type":[0,0,0,0,0,0,0,0,0,0,0,0,0,0,0,0,0,0,0,0,0,0,0,0,0,0,0,0,0,0,0,0,0,0,0,0,0,0,0,0,0,0,0,0,0,0,0,0,0,0,0,0,0,0,0,0,0,0,0,0,0,0,0,0,0,0,0,0,0,0,0,0,0,0,0,0,0,0,0,0,0,0,0,0,0,0,0,0,0,0,0,0,0,0,0,0,0,0,0,0,0,0,0,0,0,0,0,0,0,0,0,0,0,0,0,0,0,0,0],"sum_hessian":[1.1792E4,7.891E3,3.901E3,2.595E3,5.296E3,9.67E2,2.934E3,1.392E3,1.203E3,2.333E3,2.963E3,5.4E1,9.13E2,2.189E3,7.45E2,1.142E3,2.5E2,9.14E2,2.89E2,2.234E3,9.9E1,2.743E3,2.2E2,9E0,4.5E1,7E0,9.06E2,5.85E2,1.604E3,7.25E2,2E1,9.17E2,2.25E2,2.24E2,2.6E1,7.53E2,1.61E2,8.9E1,2E2,1.161E3,1.073E3,1E1,8.9E1,2.046E3,6.97E2,1.03E2,1.17E2,6E0,3.9E1,2E0,5E0,7.83E2,1.23E2,3.98E2,1.87E2,2.4E1,1.58E3,1.57E2,5.68E2,8E0,1.2E1,1.46E2,7.71E2,2.13E2,1.2E1,1.81E2,4.3E1,1.1E1,1.5E1,4.28E2,3.25E2,4.9E1,1.12E2,1.1E1,7.8E1,5.7E1,1.43E2,1.087E3,7.4E1,1.29E2,9.44E2,1E0,9E0,6.6E1,2.3E1,2.46E2,1.8E3,6.74E2,2.3E1,4.6E1,5.7E1,5.1E1,6.6E1,2E0,4E0,1.6E1,2.3E1,4E0,1E0,2.58E2,5.25E2,1.3E1,1.1E2,3.75E2,2.3E1,5.4E1,1.33E2,9E0,1.5E1,5.73E2,1.007E3,1.33E2,2.4E1,6.5E1,5.03E2,4E0,4E0,7E0,5E0],"tree_param":{"num_deleted":"0","num_feature":"8","num_nodes":"119","size_leaf_vector":"0"}},{"base_weights":[3.3543057E0,6.214949E0,2.0564845E0,8.942876E0,5.1383653E0,3.1566606E0,8.8728654E-1,-4.403099E0,1.1410359E1,2.7822197E1,4.6541176E0,3.082409E0,1.9255535E1,2.201108E0,7.3343253E-1,-3.5634872E1,8.558351E0,1.8982172E1,8.21152E0,3.1869862E1,3.5930448E0,1.10179E1,4.1336026E0,3.37377E0,-1.7355516E0,3.476911E1,4.812108E0,1.3225621E0,1.1340294E1,-1.5993693E0,8.5874516E-1,1.501782E1,-4.322854E1,-5.562488E0,3.5527008E1,9.682535E0,2.7789476E1,4.924936E0,1.0439801E1,3.2950794E1,5.0325522E0,1.2038572E1,-5.8317932E1,2.1061647E0,5.1677513E0,4.861242E0,2.697098E0,-2.5441563E0,8.288736E0,1.8453087E1,4.413131E1,-6.432924E0,1.215683E1,1.7252213E0,-6.3551836E0,7.886785E0,2.082451E1,-1.2768998E1,-5.804306E-1,9.251551E0,7.389147E-1,1.867339E1,3.9192657E0,-4.859641E1,1.991534E1,-1.0061738E1,7.9064255E1,4.7707657E1,-1.9159058E1,1.2787489E1,-8.803122E0,3.9456104E1,9.43502E0,1.5024374E1,3.0613701E0,3.493781E1,1.007461E1,1.5884042E1,7.1707125E0,4.4295244E0,-3.1461825E0,2.2983086E1,3.191584E0,1.9462706E0,6.307453E0,8.5699576E-1,3.3544414E0,-9.215307E0,-1.760334E0,-1.5251185E0,1.6292332E1,7.839813E-1,-8.4331455E0,1.65654E1,7.569377E-1,1.6998874E-1,3.2367935E0,-1.0609097E1,-1.4657528E0,8.503046E0,-4.376133E0,2.902979E1,3.310461E0,-4.7421927E0,-2.1265036E1,3.0801032E0,-1.92587E0,6.5862904E0,6.592675E1,6.1754537E-1,1.7405232E0],"categories":[],"categories_nodes":[],"categories_segments":[],"categories_sizes":[],"default_left":[1,1,1,1,1,1,1,1,1,1,1,1,1,1,1,1,1,1,1,1,0,1,1,1,1,1,1,1,1,1,1,1,1,1,1,1,1,1,1,0,0,1,0,1,1,1,1,1,1,0,0,1,1,1,1,1,1,1,1,1,1,0,0,0,0,0,0,0,0,0,0,0,0,0,0,0,0,0,0,0,0,0,0,0,0,0,0,0,0,0,0,0,0,0,0,0,0,0,0,0,0,0,0,0,0,0,0,0,0,0,0],"id":10,"left_children":[1,3,5,7,9,11,13,15,17,19,21,23,25,27,29,31,33,35,37,39,-1,41,43,45,47,49,51,53,55,57,59,61,63,65,67,69,71,73,75,-1,-1,77,-1,79,81,83,85,87,89,-1,-1,91,93,95,97,99,101,103,105,107,109,-1,-1,-1,-1,-1,-1,-1,-1,-1,-1,-1,-1,-1,-1,-1,-1,-1,-1,-1,-1,-1,-1,-1,-1,-1,-1,-1,-1,-1,-1,-1,-1,-1,-1,-1,-1,-1,-1,-1,-1,-1,-1,-1,-1,-1,-1,-1,-1,-1,-1],"loss_changes":[4.3769953E4,1.0761625E4,1.043443E4,3.4298453E4,2.8880828E4,4.9372812E3,7.937937E2,6.628885E4,2.111018E4,5.279422E3,8.523746E3,5.848336E3,4.0900024E3,3.2930303E3,1.0315431E3,1.9111895E4,4.4372742E4,2.1026156E4,4.481789E3,1.1976172E3,0E0,1.4502043E4,5.006449E3,3.9375195E3,1.9502412E3,5.604258E2,9.8671204E2,1.1764648E3,1.0148994E3,2.0411985E3,3.3572756E3,2.108147E2,1.5203641E4,3.01138E4,2.7558508E4,7.4593994E3,2.8107633E4,4.6968887E3,2.9403164E3,0E0,0E0,3.4989062E3,0E0,9.898441E3,5.5693082E4,5.156131E3,3.2629863E3,1.1393864E3,1.438678E3,0E0,0E0,7.878847E1,3.3926147E2,8.4340356E2,3.7963464E2,2.4881091E2,1.1972666E3,9.220974E2,8.234862E2,6.6653315E3,3.999668E2,0E0,0E0,0E0,0E0,0E0,0E0,0E0,0E0,0E0,0E0,0E0,0E0,0E0,0E0,0E0,0E0,0E0,0E0,0E0,0E0,0E0,0E0,0E0,0E0,0E0,0E0,0E0,0E0,0E0,0E0,0E0,0E0,0E0,0E0,0E0,0E0,0E0,0E0,0E0,0E0,0E0,0E0,0E0,0E0,0E0,0E0,0E0,0E0,0E0,0E0],"parents":[2147483647,0,0,1,1,2,2,3,3,4,4,5,5,6,6,7,7,8,8,9,9,10,10,11,11,12,12,13,13,14,14,15,15,16,16,17,17,18,18,19,19,21,21,22,22,23,23,24,24,25,25,26,26,27,27,28,28,29,29,30,30,31,31,32,32,33,33,34,34,35,35,36,36,37,37,38,38,41,41,43,43,44,44,45,45,46,46,47,47,48,48,51,51,52,52,53,53,54,54,55,55,56,56,57,57,58,58,59,59,60,60],"right_children":[2,4,6,8,10,12,14,16,18,20,22,24,26,28,30,32,34,36,38,40,-1,42,44,46,48,50,52,54,56,58,60,62,64,66,68,70,72,74,76,-1,-1,78,-1,80,82,84,86,88,90,-1,-1,92,94,96,98,100,102,104,106,108,110,-1,-1,-1,-1,-1,-1,-1,-1,-1,-1,-1,-1,-1,-1,-1,-1,-1,-1,-1,-1,-1,-1,-1,-1,-1,-1,-1,-1,-1,-1,-1,-1,-1,-1,-1,-1,-1,-1,-1,-1,-1,-1,-1,-1,-1,-1,-1,-1,-1,-1],"split_conditions":[8.5E0,3.5E0,1.85E1,1.5E0,5E-1,1.15E1,2.5E0,1.5E0,3.5E0,1.5E0,1.5E0,5E-1,1.04999E5,5E-1,4.5E0,2E0,2.4999E4,6.4999E4,2.5E0,1.349995E5,1.0779135E0,5E-1,7.5E0,5.5E0,1.05E1,1.25E1,1.05E1,1.55E3,2.15E1,2.15E1,1.15E1,5E-1,8.4999E4,8E0,6.5E0,6.5E0,1.09999E5,5E-1,5E-1,9.885239E0,1.5097657E0,3.4999E4,-1.749538E1,5E-1,8.5E0,5E-1,7.5E0,3.5E0,9.4999E4,5.5359263E0,1.3239393E1,1.55E3,1.25E1,5.5E0,6.5E0,5E-1,1.899995E5,1.55E3,4.4999E4,9.5E0,5E-1,5.602017E0,1.1757798E0,-1.4578923E1,5.974602E0,-3.0185215E0,2.3719276E1,1.4312298E1,-5.7477174E0,3.8362467E0,-2.6409366E0,1.1836832E1,2.8305063E0,4.5073123E0,9.184111E-1,1.0481343E1,3.022383E0,4.7652125E0,2.151214E0,1.3288574E0,-9.438548E-1,6.894926E0,9.5747524E-1,5.838812E-1,1.892236E0,2.5709873E-1,1.0063325E0,-2.7645922E0,-5.2810025E-1,-4.5753556E-1,4.8876996E0,2.351944E-1,-2.5299437E0,4.9696198E0,2.2708131E-1,5.0996624E-2,9.710381E-1,-3.182729E0,-4.3972588E-1,2.5509138E0,-1.31284E0,8.708938E0,9.931384E-1,-1.4226578E0,-6.379511E0,9.2403096E-1,-5.77761E-1,1.9758872E0,1.9778027E1,1.8526362E-1,5.22157E-1],"split_indices":[6,7,6,6,6,1,7,1,6,0,6,2,3,7,7,7,3,3,7,3,0,2,7,7,7,1,7,4,6,6,7,7,3,1,1,1,3,1,5,0,0,3,0,5,7,7,7,7,3,0,0,4,1,1,1,0,3,4,3,1,0,0,0,0,0,0,0,0,0,0,0,0,0,0,0,0,0,0,0,0,0,0,0,0,0,0,0,0,0,0,0,0,0,0,0,0,0,0,0,0,0,0,0,0,0,0,0,0,0,0,0],"split_type":[0,0,0,0,0,0,0,0,0,0,0,0,0,0,0,0,0,0,0,0,0,0,0,0,0,0,0,0,0,0,0,0,0,0,0,0,0,0,0,0,0,0,0,0,0,0,0,0,0,0,0,0,0,0,0,0,0,0,0,0,0,0,0,0,0,0,0,0,0,0,0,0,0,0,0,0,0,0,0,0,0,0,0,0,0,0,0,0,0,0,0,0,0,0,0,0,0,0,0,0,0,0,0,0,0,0,0,0,0,0,0],"sum_hessian":[1.1792E4,3.679E3,8.113E3,1.039E3,2.64E3,4.179E3,3.934E3,1.62E2,8.77E2,5.4E1,2.586E3,4.161E3,1.8E1,4.11E2,3.523E3,4.7E1,1.15E2,2.59E2,6.18E2,4.6E1,8E0,1.94E2,2.392E3,3.924E3,2.37E2,8E0,1E1,3.76E2,3.5E1,1.79E2,3.344E3,6E0,4.1E1,7.6E1,3.9E1,1.27E2,1.32E2,2.51E2,3.67E2,4.4E1,2E0,1.92E2,2E0,8.09E2,1.583E3,1.225E3,2.699E3,2.2E2,1.7E1,4E0,4E0,4E0,6E0,3.58E2,1.8E1,2.7E1,8E0,1.4E1,1.65E2,4.6E1,3.298E3,4E0,2E0,3.8E1,3E0,7.3E1,3E0,3.2E1,7E0,1.09E2,1.8E1,8E1,5.2E1,3.8E1,2.13E2,4E0,3.63E2,1.06E2,8.6E1,5.61E2,2.48E2,1.57E2,1.426E3,4.07E2,8.18E2,7.11E2,1.988E3,2.2E1,1.98E2,8E0,9E0,1E0,3E0,4E0,2E0,1.77E2,1.81E2,9E0,9E0,2.6E1,1E0,5E0,3E0,8E0,6E0,4.4E1,1.21E2,4.5E1,1E0,2.943E3,3.55E2],"tree_param":{"num_deleted":"0","num_feature":"8","num_nodes":"111","size_leaf_vector":"0"}},{"base_weights":[2.3583817E0,4.977816E0,1.6151726E0,6.4455442E0,2.907829E0,2.6930234E0,7.601481E-1,1.5382733E0,7.0646167E0,5.4551225E0,-4.1361216E-1,2.0103574E0,5.5783687E0,-2.2120397E0,1.2685806E0,-3.4290924E0,1.0867841E1,1.2870832E1,6.660351E0,3.177294E1,4.8767753E0,-1.2572947E0,9.233014E0,2.9002976E0,3.1510422E-1,4.1870193E0,8.910228E0,-1.7215977E0,-2.0002575E1,5.7266536E0,5.313614E-1,5.9178156E-1,-1.9188677E1,1.3975814E1,-2.6115026E1,-1.7570698E1,1.845611E1,2.9087767E-1,7.0495305E0,5.615871E1,2.2233826E1,3.2821162E0,1.3777808E1,-5.259819E0,4.094657E-3,2.465888E0,1.0955384E1,-2.5339872E-2,3.6547651E0,-6.8562634E-2,1.732196E1,3.970387E0,2.7005863E1,1.1899297E1,4.522626E0,-5.863665E-1,-6.72068E0,-2.8192352E1,-1.6193108E1,7.8498526E0,5.2191764E-1,4.369102E-1,1.3207414E0,-7.18285E0,5.139121E0,-4.122188E1,-2.080052E0,2.3066444E1,1.7807752E0,3.2534943E0,-3.427053E1,-3.2266373E1,7.4012604E0,1.5424592E1,6.765155E1,9.726827E0,-1.2397768E1,1.0043227E1,5.969912E0,9.922607E0,2.7851292E1,-5.7139166E-2,7.7347174E0,4.611617E0,2.0563766E1,2.0642385E0,-9.167618E0,4.8189425E0,-1.7056843E0,4.2633667E0,-2.5501912E0,1.1748605E1,-6.024002E0,-2.4574816E0,1.4131144E0,5.2293844E0,1.9674703E0,-3.1992927E0,4.434525E-1,1.9965864E0,5.6444843E1,5.8888024E-1,4.8912435E0,5.7384605E0,5.6037735E1,9.771402E0,1.9021214E1,1.5823968E1,2.5134723E0,-4.819561E0,2.8711277E-1,-3.0947766E0,-8.817156E0,-6.5522842E0,-2.1322374E1,1.1745331E1,5.921589E0,-2.8395915E0,2.1301057E0,2.8460503E-1,8.822704E-1,2.6842182E0,1.5224397E-1],"categories":[],"categories_nodes":[],"categories_segments":[],"categories_sizes":[],"default_left":[1,1,1,1,1,1,1,1,1,1,1,1,1,1,1,1,1,1,1,1,1,1,1,1,1,1,1,1,1,1,1,1,1,1,1,1,1,1,1,0,1,1,1,1,1,1,1,1,1,1,1,1,1,1,1,1,1,0,1,1,1,1,1,0,0,0,0,0,0,0,0,0,0,0,0,0,0,0,0,0,0,0,0,0,0,0,0,0,0,0,0,0,0,0,0,0,0,0,0,0,0,0,0,0,0,0,0,0,0,0,0,0,0,0,0,0,0,0,0,0,0,0,0],"id":11,"left_children":[1,3,5,7,9,11,13,15,17,19,21,23,25,27,29,31,33,35,37,39,41,43,45,47,49,51,53,55,57,59,61,63,65,67,69,71,73,75,77,-1,79,81,83,85,87,89,91,93,95,97,99,101,103,105,107,109,111,-1,113,115,117,119,121,-1,-1,-1,-1,-1,-1,-1,-1,-1,-1,-1,-1,-1,-1,-1,-1,-1,-1,-1,-1,-1,-1,-1,-1,-1,-1,-1,-1,-1,-1,-1,-1,-1,-1,-1,-1,-1,-1,-1,-1,-1,-1,-1,-1,-1,-1,-1,-1,-1,-1,-1,-1,-1,-1,-1,-1,-1,-1,-1,-1],"loss_changes":[2.2950422E4,7.898754E3,8.465512E3,4.6189805E3,9.16518E3,7.99376E3,7.747484E3,8.008327E3,3.0901172E3,9.175424E3,3.844931E3,4.9596064E3,3.5646934E3,6.500758E3,1.4382303E4,7.1718604E3,7.261484E3,1.5116413E4,3.1386758E3,1.7754199E3,8.485444E3,2.1911755E3,4.1589404E2,4.7590293E3,7.393976E3,2.6115908E3,2.9363672E3,4.1388926E3,1.6745215E2,6.858383E3,2.7953687E2,3.2541174E3,8.584286E3,6.167117E3,1.3090742E3,5.3765283E3,9.992635E3,8.980568E3,3.7991094E3,0E0,4.843794E2,7.5981807E3,5.565494E3,2.9955022E3,2.7331191E3,9.201906E1,4.7482544E2,1.5533191E3,4.543545E3,1.779125E3,1.4876622E4,1.6972988E3,2.765592E3,1.8600195E3,2.094603E3,2.2051577E3,9.9893115E2,0E0,6.514956E2,3.2430215E3,9.8452356E2,2.2745648E2,6.3847217E2,0E0,0E0,0E0,0E0,0E0,0E0,0E0,0E0,0E0,0E0,0E0,0E0,0E0,0E0,0E0,0E0,0E0,0E0,0E0,0E0,0E0,0E0,0E0,0E0,0E0,0E0,0E0,0E0,0E0,0E0,0E0,0E0,0E0,0E0,0E0,0E0,0E0,0E0,0E0,0E0,0E0,0E0,0E0,0E0,0E0,0E0,0E0,0E0,0E0,0E0,0E0,0E0,0E0,0E0,0E0,0E0,0E0,0E0,0E0,0E0],"parents":[2147483647,0,0,1,1,2,2,3,3,4,4,5,5,6,6,7,7,8,8,9,9,10,10,11,11,12,12,13,13,14,14,15,15,16,16,17,17,18,18,19,19,20,20,21,21,22,22,23,23,24,24,25,25,26,26,27,27,28,28,29,29,30,30,31,31,32,32,33,33,34,34,35,35,36,36,37,37,38,38,40,40,41,41,42,42,43,43,44,44,45,45,46,46,47,47,48,48,49,49,50,50,51,51,52,52,53,53,54,54,55,55,56,56,58,58,59,59,60,60,61,61,62,62],"right_children":[2,4,6,8,10,12,14,16,18,20,22,24,26,28,30,32,34,36,38,40,42,44,46,48,50,52,54,56,58,60,62,64,66,68,70,72,74,76,78,-1,80,82,84,86,88,90,92,94,96,98,100,102,104,106,108,110,112,-1,114,116,118,120,122,-1,-1,-1,-1,-1,-1,-1,-1,-1,-1,-1,-1,-1,-1,-1,-1,-1,-1,-1,-1,-1,-1,-1,-1,-1,-1,-1,-1,-1,-1,-1,-1,-1,-1,-1,-1,-1,-1,-1,-1,-1,-1,-1,-1,-1,-1,-1,-1,-1,-1,-1,-1,-1,-1,-1,-1,-1,-1,-1,-1],"split_conditions":[6.5E0,9.4999E4,9.5E0,5E-1,8.5E0,7.5E0,1.05E1,5.4999E4,5E-1,2.5E0,1.5E1,6.5E0,1.55E3,5E-1,1.35E1,3.4999E4,7.5E0,1.5E0,2.5E0,1.5E0,7.5E0,3.5E0,1.09999E5,1.4E3,7.5E0,1.8E1,1.05E1,1.55E3,7.4999E4,1.25E1,5E-1,1.5E0,4.5E0,7.4999E4,2E0,4.5E0,5.4999E4,4.5E0,4.5E0,1.6847614E1,1.09999E5,1.49999E5,4.5E0,5E-1,4.5E0,5E-1,8.5E0,1.55E1,1.35E1,7.5E0,5E-1,3.4999E4,6E0,4.5E0,5E-1,2.4999E4,8.5E0,-8.457706E0,4E0,5E-1,5.4999E4,5.5E0,4.5E0,-2.154855E0,1.5417364E0,-1.2366565E1,-6.2401557E-1,6.919934E0,5.3423256E-1,9.760483E-1,-1.0281159E1,-9.679913E0,2.2203782E0,4.627378E0,2.0295465E1,2.9180481E0,-3.7193305E0,3.0129683E0,1.7909737E0,2.9767823E0,8.355388E0,-1.714175E-2,2.3204153E0,1.3834852E0,6.1691303E0,6.192716E-1,-2.7502854E0,1.4456828E0,-5.1170534E-1,1.27901E0,-7.650574E-1,3.5245817E0,-1.8072007E0,-7.372445E-1,4.2393434E-1,1.5688154E0,5.9024113E-1,-9.5978785E-1,1.3303576E-1,5.9897596E-1,1.6933455E1,1.7666408E-1,1.4673731E0,1.7215382E0,1.6811321E1,2.9314208E0,5.706364E0,4.7471905E0,7.5404173E-1,-1.4458684E0,8.613384E-2,-9.28433E-1,-2.6451468E0,-1.9656854E0,-6.396713E0,3.5235994E0,1.7764767E0,-8.518775E-1,6.3903177E-1,8.538151E-2,2.6468113E-1,8.052655E-1,4.567319E-2],"split_indices":[6,3,7,1,7,7,7,3,6,6,7,7,4,5,6,3,7,1,7,1,7,6,3,4,1,6,6,4,3,7,0,6,7,3,6,7,3,1,7,0,3,3,6,5,6,0,1,6,6,6,2,3,1,1,5,3,6,0,1,5,3,1,1,0,0,0,0,0,0,0,0,0,0,0,0,0,0,0,0,0,0,0,0,0,0,0,0,0,0,0,0,0,0,0,0,0,0,0,0,0,0,0,0,0,0,0,0,0,0,0,0,0,0,0,0,0,0,0,0,0,0,0,0],"split_type":[0,0,0,0,0,0,0,0,0,0,0,0,0,0,0,0,0,0,0,0,0,0,0,0,0,0,0,0,0,0,0,0,0,0,0,0,0,0,0,0,0,0,0,0,0,0,0,0,0,0,0,0,0,0,0,0,0,0,0,0,0,0,0,0,0,0,0,0,0,0,0,0,0,0,0,0,0,0,0,0,0,0,0,0,0,0,0,0,0,0,0,0,0,0,0,0,0,0,0,0,0,0,0,0,0,0,0,0,0,0,0,0,0,0,0,0,0,0,0,0,0,0,0],"sum_hessian":[1.1792E4,2.605E3,9.187E3,1.523E3,1.082E3,4.063E3,5.124E3,1.71E2,1.352E3,6.12E2,4.7E2,3.287E3,7.76E2,7.48E2,4.376E3,1.12E2,5.9E1,8.6E1,1.266E3,1.2E1,6E2,4.33E2,3.7E1,2.155E3,1.132E3,5.49E2,2.27E2,7.29E2,1.9E1,6.2E2,3.756E3,9E1,2.2E1,5.5E1,4E0,1.3E1,7.3E1,7.3E1,1.193E3,2E0,1E1,5.1E2,9E1,1.03E2,3.3E2,8E0,2.9E1,4.42E2,1.713E3,1.108E3,2.4E1,5.45E2,4E0,1.34E2,9.3E1,5.95E2,1.34E2,4E0,1.5E1,4.4E2,1.8E2,3.356E3,4E2,3.3E1,5.7E1,9E0,1.3E1,3.1E1,2.4E1,1E0,3E0,8E0,5E0,7E1,3E0,4.2E1,3.1E1,3.14E2,8.79E2,4E0,6E0,2.92E2,2.18E2,3.9E1,5.1E1,3.6E1,6.7E1,8.6E1,2.44E2,6E0,2E0,2.8E1,1E0,1.64E2,2.78E2,8.85E2,8.28E2,1.55E2,9.53E2,1.8E1,6E0,1.17E2,4.28E2,3E0,1E0,1.05E2,2.9E1,1.3E1,8E1,1.01E2,4.94E2,5E1,8.4E1,6E0,9E0,1.44E2,2.96E2,5.8E1,1.22E2,2.502E3,8.54E2,1.84E2,2.16E2],"tree_param":{"num_deleted":"0","num_feature":"8","num_nodes":"123","size_leaf_vector":"0"}},{"base_weights":[1.6578614E0,2.997864E0,8.6455995E-1,2.4290397E0,5.5634613E0,1.1679058E0,-1.7859538E-1,3.5097897E0,2.2620317E-1,1.8178228E1,4.7644525E0,2.1364028E0,5.202129E-1,-1.1669233E0,4.0910202E-1,2.7122235E0,1.057544E1,1.7178394E0,-4.0924354E0,1.8874393E1,1.6763306E0,-2.6574252E0,5.1429167E0,5.6892914E-1,3.0826116E0,-2.0865767E0,7.5267947E-1,-1.4721168E0,6.8586516E0,3.622733E0,9.605099E-2,-3.273139E0,3.2893956E0,1.7338497E1,8.468687E0,7.211308E0,6.153084E-1,-3.4079776E0,-1.7052452E1,1.971646E1,8.19458E0,-2.31806E1,2.0625632E0,5.548728E0,-2.2115934E0,-2.7797143E0,1.1420854E0,4.1005635E0,2.0674474E0,-1.1985356E0,-6.73696E0,3.2041984E0,4.2143217E-1,-1.1509312E0,-4.296531E0,3.265388E0,1.4605341E1,1.8108076E0,1.2229449E1,-6.0097656E0,1.8003358E-1,2.0859354E1,-7.2022552E0,5.5430255E0,9.79345E-1,3.5250427E1,1.0102084E1,5.8500075E0,1.5777799E1,1.0407441E1,4.004255E0,3.063977E0,-7.1041864E-1,-5.028376E0,-2.8966643E-2,2.1387852E1,1.3213767E1,-2.5600996E1,-4.3291054E0,1.9288996E1,-4.7201866E-1,8.142883E0,4.1113234E0,-8.533625E0,1.8318259E0,-5.760966E0,9.825412E-1,1.0547818E0,2.2267181E1,3.3953446E-1,4.5672016E0,-3.3403497E-2,2.9209833E0,-1.3361437E0,1.5707298E1,-1.1822053E1,-4.744076E0,4.3359165E0,-7.814868E-1,-6.5090835E-1,5.3634095E-1,-1.5645359E0,8.846451E-1,-3.57316E0,-7.6284094E0,-4.19138E0,7.713751E0,1.5933819E1,3.3172379E0,3.0771332E0,-1.5524361E0,1.4117344E1,-6.5720874E-1,-2.8776326E0,-9.184316E0,3.0378098E0,-1.0473007E-2],"categories":[],"categories_nodes":[],"categories_segments":[],"categories_sizes":[],"default_left":[1,1,1,1,1,1,1,1,1,1,1,1,1,1,1,1,1,1,1,1,0,1,1,1,1,1,1,1,1,1,1,1,1,1,1,1,1,1,0,1,0,1,1,1,1,1,1,1,1,1,1,1,1,1,1,1,1,1,1,1,1,0,0,0,0,0,0,0,0,0,0,0,0,0,0,0,0,0,0,0,0,0,0,0,0,0,0,0,0,0,0,0,0,0,0,0,0,0,0,0,0,0,0,0,0,0,0,0,0,0,0,0,0,0,0,0,0],"id":12,"left_children":[1,3,5,7,9,11,13,15,17,19,21,23,25,27,29,31,33,35,37,39,-1,41,43,45,47,49,51,53,55,57,59,61,63,65,67,69,71,73,-1,75,-1,77,79,81,83,85,87,89,91,93,95,97,99,101,103,105,107,109,111,113,115,-1,-1,-1,-1,-1,-1,-1,-1,-1,-1,-1,-1,-1,-1,-1,-1,-1,-1,-1,-1,-1,-1,-1,-1,-1,-1,-1,-1,-1,-1,-1,-1,-1,-1,-1,-1,-1,-1,-1,-1,-1,-1,-1,-1,-1,-1,-1,-1,-1,-1,-1,-1,-1,-1,-1,-1],"loss_changes":[1.2533672E4,6.3858438E3,2.344688E3,8.548355E3,7.9264414E3,3.5995254E3,9.7047644E2,1.3546816E4,7.6277236E3,5.082998E2,2.117545E3,3.4095078E3,2.0867874E3,1.536044E3,1.053972E3,7.4933975E3,3.3297012E3,5.3254756E3,2.6385425E3,2.4312207E2,0E0,3.6319697E3,2.14025E3,1.6672043E3,1.4734014E3,1.1565101E3,2.5647566E3,5.402588E2,5.9253345E2,1.4281647E3,4.9130185E2,1.8260736E4,1.0281625E4,7.032129E3,3.5060605E3,1.4651006E3,2.3849358E3,1.5877039E3,0E0,1.6299512E2,0E0,2.0856738E2,1.3626207E3,2.4872266E3,9.8701184E2,1.4301216E3,1.3431372E3,1.2533018E3,1.2911667E3,5.746658E2,3.999453E2,1.6994006E3,3.4352057E2,4.5686487E2,1.19763794E2,5.962282E2,5.2115723E1,3.3697607E2,3.9853638E2,1.0283139E2,5.1396924E2,0E0,0E0,0E0,0E0,0E0,0E0,0E0,0E0,0E0,0E0,0E0,0E0,0E0,0E0,0E0,0E0,0E0,0E0,0E0,0E0,0E0,0E0,0E0,0E0,0E0,0E0,0E0,0E0,0E0,0E0,0E0,0E0,0E0,0E0,0E0,0E0,0E0,0E0,0E0,0E0,0E0,0E0,0E0,0E0,0E0,0E0,0E0,0E0,0E0,0E0,0E0,0E0,0E0,0E0,0E0,0E0],"parents":[2147483647,0,0,1,1,2,2,3,3,4,4,5,5,6,6,7,7,8,8,9,9,10,10,11,11,12,12,13,13,14,14,15,15,16,16,17,17,18,18,19,19,21,21,22,22,23,23,24,24,25,25,26,26,27,27,28,28,29,29,30,30,31,31,32,32,33,33,34,34,35,35,36,36,37,37,39,39,41,41,42,42,43,43,44,44,45,45,46,46,47,47,48,48,49,49,50,50,51,51,52,52,53,53,54,54,55,55,56,56,57,57,58,58,59,59,60,60],"right_children":[2,4,6,8,10,12,14,16,18,20,22,24,26,28,30,32,34,36,38,40,-1,42,44,46,48,50,52,54,56,58,60,62,64,66,68,70,72,74,-1,76,-1,78,80,82,84,86,88,90,92,94,96,98,100,102,104,106,108,110,112,114,116,-1,-1,-1,-1,-1,-1,-1,-1,-1,-1,-1,-1,-1,-1,-1,-1,-1,-1,-1,-1,-1,-1,-1,-1,-1,-1,-1,-1,-1,-1,-1,-1,-1,-1,-1,-1,-1,-1,-1,-1,-1,-1,-1,-1,-1,-1,-1,-1,-1,-1,-1,-1,-1,-1,-1,-1],"split_conditions":[9.5E0,1.05E1,1.999995E5,8.5E0,5E-1,9.5E0,1.05E1,7.5E0,5E-1,1.349995E5,1.4E3,6.4999E4,1.05E1,5E-1,1.15E1,1.5E0,9.4999E4,9.5E0,9.5E0,6E0,5.0289917E-1,6.5E0,9.5E0,5E-1,1.49999E5,1.55E3,1.35E1,9.5E0,1.55E1,7.5E0,1.25E1,5E-1,3.5E0,1.5E0,4.5E0,1.29999E5,8.4999E4,6.5E0,-5.115736E0,2.4999E4,2.458374E0,5E0,5E-1,4.4999E4,1.55E1,2.4999E4,1.25E1,5E-1,1.15E1,1.1E1,1.05E1,1.45E1,1.65E1,6.5E0,5.5E0,5E-1,4E0,4.5E0,1.1E1,1.15E1,1.95E1,6.2578063E0,-2.1606767E0,1.6629077E0,2.938035E-1,1.0575129E1,3.0306253E0,1.7550024E0,4.73334E0,3.1222324E0,1.2012765E0,9.1919315E-1,-2.131256E-1,-1.5085129E0,-8.689993E-3,6.4163556E0,3.9641302E0,-7.6802993E0,-1.2987317E0,5.786699E0,-1.416056E-1,2.4428651E0,1.233397E0,-2.5600874E0,5.495478E-1,-1.7282898E0,2.9476237E-1,3.1643456E-1,6.680155E0,1.01860344E-1,1.3701606E0,-1.00210495E-2,8.7629503E-1,-4.0084314E-1,4.7121897E0,-3.546616E0,-1.4232228E0,1.300775E0,-2.3444605E-1,-1.9527252E-1,1.6090229E-1,-4.6936077E-1,2.6539356E-1,-1.071948E0,-2.288523E0,-1.2574141E0,2.3141253E0,4.7801456E0,9.9517137E-1,9.2314E-1,-4.6573085E-1,4.2352033E0,-1.9716263E-1,-8.6328983E-1,-2.7552948E0,9.11343E-1,-3.1419024E-3],"split_indices":[6,7,3,7,6,7,7,7,5,3,4,3,7,0,7,6,3,7,7,1,0,6,1,1,3,4,6,7,6,1,6,7,7,1,1,3,3,6,0,3,0,1,1,3,7,3,1,1,6,1,6,7,6,1,1,5,1,1,1,6,6,0,0,0,0,0,0,0,0,0,0,0,0,0,0,0,0,0,0,0,0,0,0,0,0,0,0,0,0,0,0,0,0,0,0,0,0,0,0,0,0,0,0,0,0,0,0,0,0,0,0,0,0,0,0,0,0],"split_type":[0,0,0,0,0,0,0,0,0,0,0,0,0,0,0,0,0,0,0,0,0,0,0,0,0,0,0,0,0,0,0,0,0,0,0,0,0,0,0,0,0,0,0,0,0,0,0,0,0,0,0,0,0,0,0,0,0,0,0,0,0,0,0,0,0,0,0,0,0,0,0,0,0,0,0,0,0,0,0,0,0,0,0,0,0,0,0,0,0,0,0,0,0,0,0,0,0,0,0,0,0,0,0,0,0,0,0,0,0,0,0,0,0,0,0,0,0],"sum_hessian":[1.1792E4,4.384E3,7.408E3,3.59E3,7.94E2,5.739E3,1.669E3,2.408E3,1.182E3,4.6E1,7.48E2,2.299E3,3.44E3,6.22E2,1.047E3,2.165E3,2.43E2,8.79E2,3.03E2,4.4E1,2E0,3.6E1,7.12E2,8.66E2,1.433E3,2.81E2,3.159E3,6E2,2.2E1,9.2E1,9.55E2,1.9E2,1.975E3,5.6E1,1.87E2,1.46E2,7.33E2,2.89E2,1.4E1,4E1,4E0,6E0,3E1,6.75E2,3.7E1,1.26E2,7.4E2,7.14E2,7.19E2,2.37E2,4.4E1,3.75E2,2.784E3,5.4E2,6E1,1.6E1,6E0,7.7E1,1.5E1,1.2E1,9.43E2,2.6E1,1.64E2,9.99E2,9.76E2,1.5E1,4.1E1,1.39E2,4.8E1,7.2E1,7.4E1,2.57E2,4.76E2,1.95E2,9.4E1,3E1,1E1,5E0,1E0,3E0,2.7E1,2.39E2,4.36E2,1.4E1,2.3E1,7E1,5.6E1,7.38E2,2E0,7.9E1,6.35E2,2.08E2,5.11E2,2.36E2,1E0,1.1E1,3.3E1,2.92E2,8.3E1,2.69E2,2.515E3,4.49E2,9.1E1,5.1E1,9E0,6E0,1E1,5E0,1E0,5.6E1,2.1E1,1.3E1,2E0,7E0,5E0,5.8E1,8.85E2],"tree_param":{"num_deleted":"0","num_feature":"8","num_nodes":"117","size_leaf_vector":"0"}},{"base_weights":[1.1647037E0,2.6260362E0,7.5009805E-1,3.4156117E0,1.1704594E0,1.2654248E0,3.5006183E-1,3.674777E0,-4.2074523E0,7.48367E-1,8.640866E0,-5.562645E-1,1.8109326E0,2.332431E-1,1.3140783E0,1.7530541E0,4.5803895E0,-3.40764E1,-1.8738062E0,1.8033164E0,-3.1945598E0,1.6890665E1,-1.3190109E1,2.5315053E0,-1.7334818E0,3.2845273E0,5.898544E-1,1.132726E-2,8.072497E-1,5.9669966E-1,3.3773801E0,-3.1061637E0,4.3188233E0,8.079167E0,2.883276E0,-4.8670593E1,4.8530884E0,6.6382533E-1,-1.8644503E1,4.7600836E-1,8.993622E0,-1.250134E1,9.748232E-1,-8.991206E0,2.13552E1,2.013052E0,-2.868085E1,-5.27585E0,4.0884433E0,-6.732619E0,-5.8791393E-1,5.1042566E0,2.5540812E0,1.9886902E-1,2.559431E0,1.3862215E-1,-7.503309E-1,1.3987926E0,1.1476148E-1,-3.0236719E0,8.260685E-1,-4.9895877E-1,4.925233E0,-1.1279087E1,1.0441944E1,9.65448E0,1.5261961E0,4.038805E0,1.2141984E1,4.962903E0,-6.154591E-2,-3.9505262E0,2.7595911E1,-4.9378524E0,8.962049E-1,1.8889368E1,3.4931638E0,-5.3695084E1,-2.5942652E0,1.3459681E1,-2.0357177E0,-1.37921295E1,4.0709433E-1,2.8550451E1,5.6774273E0,-1.0532898E1,1.1647202E1,-1.1850797E1,-4.7170654E1,-2.3499293E0,-1.7783012E1,1.8892601E1,2.715026E0,-9.176842E0,-2.1834042E0,-7.6558185E0,3.6447054E-1,-1.4517295E1,5.6964273E0,7.377796E-1,3.5908098E0,8.087992E-1,-1.9278046E0,3.4198058E0,-8.665929E-1,-2.4763234E-1,5.3050315E-1,-3.1806197E0,1.596917E-1,-5.799155E-1,1.639476E0,-2.2174476E-1,7.221536E-1,-3.7858436E0,7.634224E0,-9.118765E0,9.7811747E-1,6.723253E0,-3.278558E0,3.5402412E0,1.0862027E1],"categories":[],"categories_nodes":[],"categories_segments":[],"categories_sizes":[],"default_left":[1,1,1,1,1,1,1,1,1,1,1,1,1,1,1,1,1,1,1,1,1,1,1,1,1,1,1,1,1,1,1,1,1,1,1,0,0,1,0,1,1,1,1,1,1,1,1,1,1,1,1,1,1,1,1,1,1,1,1,1,1,1,1,0,0,0,0,0,0,0,0,0,0,0,0,0,0,0,0,0,0,0,0,0,0,0,0,0,0,0,0,0,0,0,0,0,0,0,0,0,0,0,0,0,0,0,0,0,0,0,0,0,0,0,0,0,0,0,0,0,0],"id":13,"left_children":[1,3,5,7,9,11,13,15,17,19,21,23,25,27,29,31,33,35,37,39,41,43,45,47,49,51,53,55,57,59,61,63,65,67,69,-1,-1,71,-1,73,75,77,79,81,83,85,87,89,91,93,95,97,99,101,103,105,107,109,111,113,115,117,119,-1,-1,-1,-1,-1,-1,-1,-1,-1,-1,-1,-1,-1,-1,-1,-1,-1,-1,-1,-1,-1,-1,-1,-1,-1,-1,-1,-1,-1,-1,-1,-1,-1,-1,-1,-1,-1,-1,-1,-1,-1,-1,-1,-1,-1,-1,-1,-1,-1,-1,-1,-1,-1,-1,-1,-1,-1,-1],"loss_changes":[7.143135E3,2.991045E3,1.8936577E3,3.3523086E3,2.8881724E3,3.9908965E3,5.8236456E2,2.8356777E3,3.8395464E3,3.6246023E3,9.047747E3,3.370376E3,5.55813E3,5.8798224E2,8.253991E2,6.5589214E3,6.5676895E3,2.5087808E3,2.2679429E3,6.5522744E3,7.1520356E3,4.351826E3,3.354851E3,3.1333958E3,3.8387583E3,1.8478613E3,1.301689E3,3.229648E2,5.270417E2,3.4794437E2,8.664579E2,2.0270207E4,5.1110366E3,5.8932812E3,4.587279E3,0E0,0E0,5.9499014E3,0E0,1.326134E3,5.7581484E3,2.3122941E4,4.83843E3,2.7633786E2,3.334879E3,1.0896351E3,1.6192808E3,1.5317946E3,4.2998164E3,1.369875E3,3.6848457E3,4.73042E3,1.8822461E3,1.833096E3,8.283097E2,4.3212936E2,1.0554497E3,3.314629E2,1.2156852E2,2.3198062E2,6.016629E2,8.651864E2,8.084541E2,0E0,0E0,0E0,0E0,0E0,0E0,0E0,0E0,0E0,0E0,0E0,0E0,0E0,0E0,0E0,0E0,0E0,0E0,0E0,0E0,0E0,0E0,0E0,0E0,0E0,0E0,0E0,0E0,0E0,0E0,0E0,0E0,0E0,0E0,0E0,0E0,0E0,0E0,0E0,0E0,0E0,0E0,0E0,0E0,0E0,0E0,0E0,0E0,0E0,0E0,0E0,0E0,0E0,0E0,0E0,0E0,0E0,0E0],"parents":[2147483647,0,0,1,1,2,2,3,3,4,4,5,5,6,6,7,7,8,8,9,9,10,10,11,11,12,12,13,13,14,14,15,15,16,16,17,17,18,18,19,19,20,20,21,21,22,22,23,23,24,24,25,25,26,26,27,27,28,28,29,29,30,30,31,31,32,32,33,33,34,34,37,37,39,39,40,40,41,41,42,42,43,43,44,44,45,45,46,46,47,47,48,48,49,49,50,50,51,51,52,52,53,53,54,54,55,55,56,56,57,57,58,58,59,59,60,60,61,61,62,62],"right_children":[2,4,6,8,10,12,14,16,18,20,22,24,26,28,30,32,34,36,38,40,42,44,46,48,50,52,54,56,58,60,62,64,66,68,70,-1,-1,72,-1,74,76,78,80,82,84,86,88,90,92,94,96,98,100,102,104,106,108,110,112,114,116,118,120,-1,-1,-1,-1,-1,-1,-1,-1,-1,-1,-1,-1,-1,-1,-1,-1,-1,-1,-1,-1,-1,-1,-1,-1,-1,-1,-1,-1,-1,-1,-1,-1,-1,-1,-1,-1,-1,-1,-1,-1,-1,-1,-1,-1,-1,-1,-1,-1,-1,-1,-1,-1,-1,-1,-1,-1,-1,-1],"split_conditions":[6.5E0,1.09999E5,1.35E1,5E-1,5E-1,3.4999E4,5E-1,2.4999E4,1.5E0,5.5E0,5E-1,1.4999E4,1.49999E5,5.5E0,1.4E3,4.5E0,4.5E0,2.5E0,6.5E0,3.5E0,6.5E0,1.29999E5,1.799995E5,2.5E0,5E-1,6E0,1.05E1,4.5E0,2.55E1,1.55E1,1.55E1,2.5E0,1.5E0,6.4999E4,7.4999E4,-1.4601178E1,1.4559265E0,4.5E0,-5.593351E0,2.5E0,8.5E0,5E0,3.5E0,1E0,5.5E0,1.29999E5,1.55E3,5.5E0,4E0,2.4999E4,7.5E0,4.4999E4,1.5E0,9.5E0,1.25E1,1.5E0,8E0,1.4999E4,1.999995E5,1.05E1,9E0,5E-1,1.89999E5,-3.3837264E0,3.1325834E0,2.8963442E0,4.5785886E-1,1.2116416E0,3.6425953E0,1.488871E0,-1.8463774E-2,-1.1851579E0,8.278773E0,-1.4813558E0,2.6886147E-1,5.6668105E0,1.0479492E0,-1.6108526E1,-7.782796E-1,4.0379043E0,-6.107153E-1,-4.137639E0,1.221283E-1,8.565136E0,1.7032282E0,-3.1598694E0,3.4941607E0,-3.5552392E0,-1.41511965E1,-7.049788E-1,-5.3349037E0,5.6677804E0,8.145078E-1,-2.7530527E0,-6.550213E-1,-2.2967455E0,1.0934117E-1,-4.355189E0,1.7089282E0,2.2133389E-1,1.077243E0,2.4263977E-1,-5.783414E-1,1.0259417E0,-2.5997788E-1,-7.42897E-2,1.5915096E-1,-9.5418596E-1,4.7907513E-2,-1.7397466E-1,4.918428E-1,-6.652343E-2,2.1664609E-1,-1.1357532E0,2.2902672E0,-2.7356296E0,2.9343525E-1,2.0169759E0,-9.835674E-1,1.0620724E0,3.2586083E0],"split_indices":[6,3,6,2,2,3,0,3,6,1,5,3,3,1,4,7,7,1,1,1,1,3,3,7,1,7,7,1,6,6,6,6,6,3,3,0,0,1,0,7,7,7,6,1,6,3,4,1,7,3,6,3,1,7,7,1,7,3,3,1,7,5,3,0,0,0,0,0,0,0,0,0,0,0,0,0,0,0,0,0,0,0,0,0,0,0,0,0,0,0,0,0,0,0,0,0,0,0,0,0,0,0,0,0,0,0,0,0,0,0,0,0,0,0,0,0,0,0,0,0,0],"split_type":[0,0,0,0,0,0,0,0,0,0,0,0,0,0,0,0,0,0,0,0,0,0,0,0,0,0,0,0,0,0,0,0,0,0,0,0,0,0,0,0,0,0,0,0,0,0,0,0,0,0,0,0,0,0,0,0,0,0,0,0,0,0,0,0,0,0,0,0,0,0,0,0,0,0,0,0,0,0,0,0,0,0,0,0,0,0,0,0,0,0,0,0,0,0,0,0,0,0,0,0,0,0,0,0,0,0,0,0,0,0,0,0,0,0,0,0,0,0,0,0,0],"sum_hessian":[1.1792E4,2.605E3,9.187E3,1.688E3,9.17E2,4.014E3,5.173E3,1.633E3,5.5E1,8.69E2,4.8E1,9.25E2,3.089E3,4.615E3,5.58E2,5.24E2,1.109E3,3E0,5.2E1,6.86E2,1.83E2,3.5E1,1.3E1,2.55E2,6.7E2,1.399E3,1.69E3,3.329E3,1.286E3,4.15E2,1.43E2,1.81E2,3.43E2,3.61E2,7.48E2,2E0,1E0,4.6E1,6E0,5.8E2,1.06E2,5.6E1,1.27E2,5E0,3E1,7E0,6E0,4.2E1,2.13E2,1.24E2,5.46E2,3.99E2,1E3,1.411E3,2.79E2,2.853E3,4.76E2,6.93E2,5.93E2,2.4E1,3.91E2,4.1E1,1.02E2,1.13E2,6.8E1,1.17E2,2.26E2,1.82E2,1.79E2,4.38E2,3.1E2,4E1,6E0,4.1E1,5.39E2,3.7E1,6.9E1,1E1,4.6E1,2.4E1,1.03E2,3E0,2E0,2E1,1E1,3E0,4E0,4E0,2E0,3.5E1,7E0,1.7E1,1.96E2,8E1,4.4E1,6.4E1,4.82E2,1.1E1,3.88E2,3.64E2,6.36E2,1.097E3,3.14E2,2.23E2,5.6E1,1.437E3,1.416E3,1.29E2,3.47E2,7.5E1,6.18E2,3.82E2,2.11E2,2.3E1,1E0,5E0,3.86E2,1.1E1,3E1,8.4E1,1.8E1],"tree_param":{"num_deleted":"0","num_feature":"8","num_nodes":"121","size_leaf_vector":"0"}},{"base_weights":[8.132872E-1,1.6246961E0,4.4518292E-1,1.443855E0,4.8492465E0,7.5419736E-1,-1.7232546E-1,1.9099746E0,-1.0371319E0,3.5030407E1,3.2005322E0,3.159922E-2,1.286103E0,-1.7102795E0,2.2829387E-3,1.4083892E0,4.006878E0,-7.231701E0,5.208641E-1,4.7537403E1,4.385563E0,2.0683925E0,1.9444191E1,3.8866955E-3,1.2717616E1,1.8612833E0,8.196967E-2,-2.345153E0,3.3829212E0,-1.2621996E0,1.3493198E-1,2.762288E0,8.2531434E-1,3.5322602E0,2.2468065E1,-2.433959E1,-2.4837344E0,5.3267914E1,1.6004138E-1,2.399147E1,7.093482E1,3.130523E0,-2.3869955E1,2.1236095E0,4.3268284E1,4.8805267E-1,-5.9201366E-1,3.4551716E0,1.7740854E1,5.6812687E0,1.5530871E0,-1.5049626E0,2.0931223E-1,-1.2522134E0,-5.5000067E0,-3.4641984E0,6.808416E0,-7.9717793E0,-4.8194906E-1,7.859971E0,2.8219549E-2,-7.827142E-1,5.71695E0,-8.561578E0,1.0153157E0,-1.716702E0,5.0851545E0,4.568021E1,1.4792689E1,-2.7404926E1,6.2527413E0,-4.7190266E0,-3.473007E-2,-5.8646643E-1,2.1350195E1,5.135655E0,-6.7265167E0,1.497205E1,-8.5798645E0,-9.581047E0,5.8875877E1,1.9267042E0,4.0297735E-2,-1.7227963E0,1.9009282E-1,-9.3758595E-1,7.8027315E0,-4.7831205E-1,1.7891376E0,-8.415955E0,-6.697728E-1,2.4662448E-2,1.7842362E0,-2.627794E0,1.3065851E0,-3.9158897E0,-1.07647085E1,-7.7470894E0,8.989497E-2,1.4806428E1,3.3836355E0,-8.892808E0,-1.1434326E0,-3.9047782E0,7.740011E-1,1.547214E1,1.9256282E0,-1.1917604E0,1.1410282E-1],"categories":[],"categories_nodes":[],"categories_segments":[],"categories_sizes":[],"default_left":[1,1,1,1,1,1,1,1,1,1,1,1,1,1,1,1,1,1,1,1,0,1,1,1,1,1,1,1,1,1,1,1,1,1,1,1,1,0,1,0,0,1,0,1,1,1,1,0,0,1,1,1,1,1,1,1,1,1,1,1,1,0,0,0,0,0,0,0,0,0,0,0,0,0,0,0,0,0,0,0,0,0,0,0,0,0,0,0,0,0,0,0,0,0,0,0,0,0,0,0,0,0,0,0,0,0,0,0,0],"id":14,"left_children":[1,3,5,7,9,11,13,15,17,19,21,23,25,27,29,31,33,35,37,39,-1,41,43,45,47,49,51,53,55,57,59,61,63,65,67,69,71,-1,73,-1,-1,75,-1,77,79,81,83,-1,-1,85,87,89,91,93,95,97,99,101,103,105,107,-1,-1,-1,-1,-1,-1,-1,-1,-1,-1,-1,-1,-1,-1,-1,-1,-1,-1,-1,-1,-1,-1,-1,-1,-1,-1,-1,-1,-1,-1,-1,-1,-1,-1,-1,-1,-1,-1,-1,-1,-1,-1,-1,-1,-1,-1,-1,-1],"loss_changes":[3.5216455E3,2.1389219E3,1.5484354E3,4.0333193E3,9.591105E3,2.0785457E3,7.269408E2,3.0813193E3,5.3311816E3,3.6242705E3,3.3803384E3,8.064328E2,2.1572773E3,9.003903E2,4.080955E2,1.8686558E3,4.8799297E3,8.95582E3,8.403768E3,2.1545684E3,0E0,4.8959595E3,4.8598813E3,6.609875E2,1.7133966E2,2.472936E3,2.0401569E2,8.413368E2,7.506837E2,1.2054785E3,1.8150138E3,7.4726387E3,2.9657715E3,4.51628E3,1.8185337E3,2.4219756E3,4.8156934E2,0E0,6.9727114E3,0E0,0E0,3.3747742E3,0E0,1.2286417E3,4.6883467E3,8.1414465E2,9.085985E2,0E0,0E0,2.211856E3,9.3686426E2,4.272625E2,2.7157193E2,6.510829E2,4.8326062E2,1.6813618E2,5.2512067E2,1.4077014E2,8.9719403E2,1.3254032E3,2.2781393E2,0E0,0E0,0E0,0E0,0E0,0E0,0E0,0E0,0E0,0E0,0E0,0E0,0E0,0E0,0E0,0E0,0E0,0E0,0E0,0E0,0E0,0E0,0E0,0E0,0E0,0E0,0E0,0E0,0E0,0E0,0E0,0E0,0E0,0E0,0E0,0E0,0E0,0E0,0E0,0E0,0E0,0E0,0E0,0E0,0E0,0E0,0E0,0E0],"parents":[2147483647,0,0,1,1,2,2,3,3,4,4,5,5,6,6,7,7,8,8,9,9,10,10,11,11,12,12,13,13,14,14,15,15,16,16,17,17,18,18,19,19,21,21,22,22,23,23,24,24,25,25,26,26,27,27,28,28,29,29,30,30,31,31,32,32,33,33,34,34,35,35,36,36,38,38,41,41,43,43,44,44,45,45,46,46,49,49,50,50,51,51,52,52,53,53,54,54,55,55,56,56,57,57,58,58,59,59,60,60],"right_children":[2,4,6,8,10,12,14,16,18,20,22,24,26,28,30,32,34,36,38,40,-1,42,44,46,48,50,52,54,56,58,60,62,64,66,68,70,72,-1,74,-1,-1,76,-1,78,80,82,84,-1,-1,86,88,90,92,94,96,98,100,102,104,106,108,-1,-1,-1,-1,-1,-1,-1,-1,-1,-1,-1,-1,-1,-1,-1,-1,-1,-1,-1,-1,-1,-1,-1,-1,-1,-1,-1,-1,-1,-1,-1,-1,-1,-1,-1,-1,-1,-1,-1,-1,-1,-1,-1,-1,-1,-1,-1,-1],"split_conditions":[8.5E0,7.5E0,1.89999E5,5.5E0,8.5E0,6.4999E4,1.05E1,3.5E0,2.4999E4,5E-1,1.999995E5,1.25E1,2.25E1,1.05E1,5E-1,5.4999E4,5E-1,4.5E0,5E-1,3.9999E4,1.315669E0,5E-1,5E-1,3.5E0,5E-1,8.4999E4,8E0,9.5E0,1.5E0,5E-1,1.5E0,1.5E0,1.5E0,2.4999E4,8E0,5E-1,1.55E3,1.5980374E1,5E-1,7.1974416E0,2.1280447E1,1.49999E5,-7.160987E0,1.15E1,1.15E1,1.4999E4,5.5E0,1.0365515E0,5.3222566E0,5E-1,1.4E3,9.4999E4,5E-1,7.5E0,1.55E3,1.55E3,5E-1,2.25E1,1.55E1,1.999995E5,4.5E0,-2.3481427E-1,1.715085E0,-2.5684733E0,3.045947E-1,-5.150106E-1,1.5255464E0,1.3704063E1,4.437807E0,-8.221478E0,1.8758224E0,-1.4157081E0,-1.0419021E-2,-1.7593993E-1,6.405059E0,1.5406965E0,-2.017955E0,4.4916153E0,-2.5739594E0,-2.8743143E0,1.7662764E1,5.780113E-1,1.2089321E-2,-5.168389E-1,5.7027847E-2,-2.812758E-1,2.3408196E0,-1.4349362E-1,5.367413E-1,-2.5247865E0,-2.0093185E-1,7.398735E-3,5.3527087E-1,-7.8833824E-1,3.9197555E-1,-1.174767E0,-3.2294128E0,-2.324127E0,2.6968492E-2,4.4419284E0,1.0150907E0,-2.6678424E0,-3.430298E-1,-1.1714336E0,2.3220034E-1,4.641642E0,5.7768846E-1,-3.5752815E-1,3.4230847E-2],"split_indices":[6,1,3,1,1,3,6,1,3,0,3,1,6,7,7,3,2,7,6,3,0,2,2,1,2,3,7,7,1,1,7,1,6,3,7,0,4,0,2,0,0,3,0,1,1,3,1,0,0,1,4,3,0,7,4,4,5,6,6,3,7,0,0,0,0,0,0,0,0,0,0,0,0,0,0,0,0,0,0,0,0,0,0,0,0,0,0,0,0,0,0,0,0,0,0,0,0,0,0,0,0,0,0,0,0,0,0,0,0],"split_type":[0,0,0,0,0,0,0,0,0,0,0,0,0,0,0,0,0,0,0,0,0,0,0,0,0,0,0,0,0,0,0,0,0,0,0,0,0,0,0,0,0,0,0,0,0,0,0,0,0,0,0,0,0,0,0,0,0,0,0,0,0,0,0,0,0,0,0,0,0,0,0,0,0,0,0,0,0,0,0,0,0,0,0,0,0,0,0,0,0,0,0,0,0,0,0,0,0,0,0,0,0,0,0,0,0,0,0,0,0],"sum_hessian":[1.1792E4,3.679E3,8.113E3,3.485E3,1.94E2,5.407E3,2.706E3,2.934E3,5.51E2,9E0,1.85E2,2.293E3,3.114E3,2.75E2,2.431E3,2.369E3,5.65E2,1.1E2,4.41E2,6E0,3E0,1.74E2,1.1E1,2.289E3,4E0,2.107E3,1.007E3,2.45E2,3E1,2.3E2,2.201E3,7.12E2,1.657E3,5.52E2,1.3E1,2.3E1,8.7E1,2E0,4.39E2,4E0,2E0,1.68E2,6E0,7E0,4E0,1.263E3,1.026E3,2E0,2E0,1.56E2,1.951E3,7.4E1,9.33E2,1.83E2,6.2E1,1E1,2E1,2.3E1,2.07E2,2.9E1,2.172E3,3.24E2,3.88E2,3.2E1,1.625E3,1.26E2,4.26E2,2E0,1.1E1,2.1E1,2E0,4.5E1,4.2E1,4.25E2,1.4E1,1.4E2,2.8E1,3E0,4E0,1E0,3E0,2.99E2,9.64E2,4.19E2,6.07E2,3.8E1,1.18E2,2.03E2,1.748E3,7E0,6.7E1,8.36E2,9.7E1,1.19E2,6.4E1,4.9E1,1.3E1,4E0,6E0,5E0,1.5E1,2E1,3E0,5.5E1,1.52E2,1.2E1,1.7E1,1.42E2,2.03E3],"tree_param":{"num_deleted":"0","num_feature":"8","num_nodes":"109","size_leaf_vector":"0"}},{"base_weights":[5.7589173E-1,1.3422438E0,3.5846797E-1,1.6098962E0,-1.456385E0,-1.0130401E0,4.4980717E-1,2.7536008E0,3.728082E-1,-3.336723E0,6.055751E0,-1.7588747E0,1.05230665E1,2.6702764E0,3.1237492E-1,1.9877161E0,1.0061612E1,1.0122851E1,-7.976435E-3,-2.7372572E0,-1.8017971E1,1.9077011E1,-2.2352295E0,-3.8458092E0,1.7835599E-1,-5.0274186E0,3.4207897E1,7.235567E0,1.748666E0,4.7705677E-1,-2.841652E-1,-1.248996E0,2.943335E0,3.9836266E1,7.211537E0,8.672818E0,1.6341187E1,2.1646004E0,-9.4349855E-1,-2.8042975E-1,-4.8072844E0,-1.9925497E1,-3.2864113E0,8.620245E0,3.1070438E1,-4.759953E1,2.8880343E0,-1.6537935E0,-7.898522E0,-6.2531524E0,1.7358652E0,4.2487335E-1,-8.8347645E0,9.2741776E1,1.6723768E1,9.870045E0,-1.137869E0,1.2305678E0,5.15516E0,9.006574E-1,1.6302338E-1,-9.292712E-1,1.423124E-1,-7.7450356E0,3.9383993E0,9.615453E0,1.5862901E0,8.83674E1,-7.245725E0,-2.3272989E0,1.1625695E1,1.1004985E1,-8.454041E0,1.8429312E1,1.9062195E0,4.424251E0,-6.758386E-2,-5.233168E0,-1.5254173E-1,-1.4277757E0,2.244976E1,6.204507E0,-5.878862E0,9.83255E0,-1.7514038E0,5.062256E0,3.8896122E1,-6.205831E0,3.863777E0,-4.1523657E0,4.595661E-1,-1.4307206E1,-1.5944935E0,4.8521457E0,-1.273767E1,6.6103606E0,-6.1769646E-1,-5.896263E0,1.1380644E1,-5.0092745E0,-1.61898E1,2.0319351E1,-1.1413822E1,1.3821975E1,5.738778E0,-9.499514E0,5.92499E0,2.0190525E0,-1.8451604E0,1.36920185E1,3.4107583E0,-6.632219E-1,1.1423578E0,-1.5144978E0,3.8612217E-1,-1.0991753E0,3.8950822E0,2.305906E0,-8.593947E-2],"categories":[],"categories_nodes":[],"categories_segments":[],"categories_sizes":[],"default_left":[1,1,1,1,1,1,1,1,1,1,1,1,1,1,1,1,1,1,1,1,1,1,1,1,1,1,1,1,1,1,1,1,1,1,1,1,1,1,1,1,1,0,0,1,1,0,1,1,1,1,1,1,1,0,1,1,1,1,1,1,1,1,1,0,0,0,0,0,0,0,0,0,0,0,0,0,0,0,0,0,0,0,0,0,0,0,0,0,0,0,0,0,0,0,0,0,0,0,0,0,0,0,0,0,0,0,0,0,0,0,0,0,0,0,0,0,0,0,0],"id":15,"left_children":[1,3,5,7,9,11,13,15,17,19,21,23,25,27,29,31,33,35,37,39,41,43,45,47,49,51,53,55,57,59,61,63,65,67,69,71,73,75,77,79,81,-1,-1,83,85,-1,87,89,91,93,95,97,99,-1,101,103,105,107,109,111,113,115,117,-1,-1,-1,-1,-1,-1,-1,-1,-1,-1,-1,-1,-1,-1,-1,-1,-1,-1,-1,-1,-1,-1,-1,-1,-1,-1,-1,-1,-1,-1,-1,-1,-1,-1,-1,-1,-1,-1,-1,-1,-1,-1,-1,-1,-1,-1,-1,-1,-1,-1,-1,-1,-1,-1,-1,-1],"loss_changes":[1.9645054E3,1.9543945E3,1.151459E3,3.364933E3,3.2407874E3,4.9572207E3,2.6281545E3,6.898009E3,4.247371E3,1.5612463E3,5.0087563E3,2.1838374E3,1.3062848E4,2.099472E3,7.972496E2,3.4679077E3,9.641341E3,2.4599756E2,2.2418503E3,8.988207E2,1.3122266E2,1.9895894E3,6.877454E3,2.2966758E3,2.825669E3,4.604464E2,1.2776802E4,1.8642393E3,7.331488E2,8.4575757E2,4.8324872E2,8.65707E3,7.8167725E3,2.3489715E4,4.5744976E3,1.5709158E3,1.7586377E2,1.674893E3,2.6151611E3,2.1705635E3,1.1692744E3,0E0,0E0,1.5553046E2,1.431352E3,0E0,2.6355627E2,8.995731E2,3.6536357E3,4.0224924E3,2.6083237E3,7.596325E2,2.8467694E2,0E0,1.4459739E3,9.6557324E2,1.2964839E3,8.889105E2,7.723439E2,1.02397754E3,1.3677307E3,5.77236E2,5.226854E2,0E0,0E0,0E0,0E0,0E0,0E0,0E0,0E0,0E0,0E0,0E0,0E0,0E0,0E0,0E0,0E0,0E0,0E0,0E0,0E0,0E0,0E0,0E0,0E0,0E0,0E0,0E0,0E0,0E0,0E0,0E0,0E0,0E0,0E0,0E0,0E0,0E0,0E0,0E0,0E0,0E0,0E0,0E0,0E0,0E0,0E0,0E0,0E0,0E0,0E0,0E0,0E0,0E0,0E0,0E0,0E0],"parents":[2147483647,0,0,1,1,2,2,3,3,4,4,5,5,6,6,7,7,8,8,9,9,10,10,11,11,12,12,13,13,14,14,15,15,16,16,17,17,18,18,19,19,20,20,21,21,22,22,23,23,24,24,25,25,26,26,27,27,28,28,29,29,30,30,31,31,32,32,33,33,34,34,35,35,36,36,37,37,38,38,39,39,40,40,43,43,44,44,46,46,47,47,48,48,49,49,50,50,51,51,52,52,54,54,55,55,56,56,57,57,58,58,59,59,60,60,61,61,62,62],"right_children":[2,4,6,8,10,12,14,16,18,20,22,24,26,28,30,32,34,36,38,40,42,44,46,48,50,52,54,56,58,60,62,64,66,68,70,72,74,76,78,80,82,-1,-1,84,86,-1,88,90,92,94,96,98,100,-1,102,104,106,108,110,112,114,116,118,-1,-1,-1,-1,-1,-1,-1,-1,-1,-1,-1,-1,-1,-1,-1,-1,-1,-1,-1,-1,-1,-1,-1,-1,-1,-1,-1,-1,-1,-1,-1,-1,-1,-1,-1,-1,-1,-1,-1,-1,-1,-1,-1,-1,-1,-1,-1,-1,-1,-1,-1,-1,-1,-1,-1,-1],"split_conditions":[6.5E0,5E-1,7.5E0,8.5E0,1.5E1,5E-1,8.5E0,7.5E0,5E-1,1E1,3.5E0,2.5E0,1.89999E5,6E0,1.999995E5,2.4999E4,6.4999E4,3.4999E4,4.4999E4,5.4999E4,5E0,2.5E0,1.4999E4,1.49999E5,5.4999E4,4.9999E4,1.999995E5,1.69999E5,1.05E1,9.5E0,1.05E1,2.5E0,2.5E0,1.5E0,3.5E0,2.4999E4,5E-1,3.5E0,1.5E0,1E1,5E-1,-5.977649E0,-9.859234E-1,1.999995E5,5E-1,-1.427986E1,2.4999E4,8.4999E4,1.89999E5,3.5E0,5E0,2.4999E4,9.5E0,2.7822535E1,8.5E0,2.5E0,2.5E0,5E-1,5E-1,1.4E3,1.05E1,5E-1,1.15E1,-2.323511E0,1.1815199E0,2.884636E0,4.7588706E-1,2.6510221E1,-2.1737177E0,-6.981897E-1,3.4877088E0,3.3014956E0,-2.5362122E0,5.528794E0,5.7186586E-1,1.3272754E0,-2.0275159E-2,-1.5699505E0,-4.576252E-2,-4.2833275E-1,6.7349286E0,1.8613521E0,-1.7636586E0,2.9497652E0,-5.2542114E-1,1.5186769E0,1.1668837E1,-1.8617494E0,1.1591331E0,-1.2457098E0,1.3786983E-1,-4.292162E0,-4.7834808E-1,1.4556438E0,-3.8213012E0,1.9831083E0,-1.8530895E-1,-1.768879E0,3.4141934E0,-1.5027825E0,-4.8569403E0,6.0958056E0,-3.424147E0,4.1465926E0,1.7216336E0,-2.8498542E0,1.7774972E0,6.0571575E-1,-5.5354816E-1,4.107606E0,1.0232276E0,-1.9896658E-1,3.4270737E-1,-4.5434934E-1,1.1583666E-1,-3.2975262E-1,1.1685247E0,6.9177186E-1,-2.5781842E-2],"split_indices":[6,0,6,7,7,2,6,7,6,7,1,1,3,7,3,3,3,3,3,3,1,1,3,3,3,3,3,3,7,7,7,6,6,1,6,3,2,1,1,1,5,0,0,3,5,0,3,3,3,1,7,3,7,0,7,1,1,5,1,4,7,0,7,0,0,0,0,0,0,0,0,0,0,0,0,0,0,0,0,0,0,0,0,0,0,0,0,0,0,0,0,0,0,0,0,0,0,0,0,0,0,0,0,0,0,0,0,0,0,0,0,0,0,0,0,0,0,0,0],"split_type":[0,0,0,0,0,0,0,0,0,0,0,0,0,0,0,0,0,0,0,0,0,0,0,0,0,0,0,0,0,0,0,0,0,0,0,0,0,0,0,0,0,0,0,0,0,0,0,0,0,0,0,0,0,0,0,0,0,0,0,0,0,0,0,0,0,0,0,0,0,0,0,0,0,0,0,0,0,0,0,0,0,0,0,0,0,0,0,0,0,0,0,0,0,0,0,0,0,0,0,0,0,0,0,0,0,0,0,0,0,0,0,0,0,0,0,0,0,0,0],"sum_hessian":[1.1792E4,2.605E3,9.187E3,2.378E3,2.27E2,5.73E2,8.614E3,1.235E3,1.143E3,1.82E2,4.5E1,5.39E2,3.4E1,5.01E2,8.113E3,1.119E3,1.16E2,4.2E1,1.101E3,1.76E2,6E0,1.7E1,2.8E1,2.59E2,2.8E2,2.1E1,1.3E1,8.3E1,4.18E2,6.358E3,1.755E3,2.55E2,8.64E2,9E0,1.07E2,3.6E1,6E0,3.31E2,7.7E2,8.1E1,9.5E1,5E0,1E0,1E1,7E0,2E0,2.6E1,1.69E2,9E1,5.4E1,2.26E2,9E0,1.2E1,2E0,1.1E1,6.3E1,2E1,3.64E2,5.4E1,2.706E3,3.652E3,6.98E2,1.057E3,1.13E2,1.42E2,1.45E2,7.19E2,4E0,5E0,3.4E1,7.3E1,3.2E1,4E0,5E0,1E0,1.64E2,1.67E2,1.19E2,6.51E2,7.8E1,3E0,8E0,8.7E1,9E0,1E0,2E0,5E0,2E0,2.4E1,7.7E1,9.2E1,4.4E1,4.6E1,2E1,3.4E1,7.3E1,1.53E2,6E0,3E0,9E0,3E0,1E1,1E0,3.1E1,3.2E1,9E0,1.1E1,2.9E2,7.4E1,8E0,4.6E1,3.62E2,2.344E3,4.28E2,3.224E3,6.75E2,2.3E1,1E2,9.57E2],"tree_param":{"num_deleted":"0","num_feature":"8","num_nodes":"119","size_leaf_vector":"0"}},{"base_weights":[4.0877074E-1,4.1030626E0,3.768258E-1,3.2137825E1,1.0112071E0,5.1653564E-1,-3.0135402E-1,3.6809097E1,-4.9518127E0,-6.3239546E0,1.4317223E1,-8.691621E-3,8.1910616E-1,-5.1567185E-1,2.4410365E0,3.9265156E1,8.580322E0,-1.6024595E1,3.2677603E0,1.903375E1,1.565831E0,4.8398727E-1,-9.4099694E-1,4.101952E0,6.34707E-1,-2.2164281E-2,-1.4584923E0,1.5101282E1,-6.951203E-2,-2.3239986E1,2.4700354E1,1.2843947E0,6.7571163E0,5.7318848E1,1.0834983E1,-1.3301924E1,4.0691235E1,-3.213913E-1,2.3714037E0,6.685552E-1,-2.856408E0,-1.9751795E1,5.6375785E0,8.164775E0,5.138001E-1,1.4768185E-1,-3.1913545E0,-3.3400178E0,-8.0442333E-1,1.0617924E1,3.001446E1,-9.45631E-1,4.4459763E0,-1.2014022E1,-3.2004097E1,-2.4604492E1,6.577175E1,-9.163E0,4.2816052E0,-1.5861002E0,8.787397E0,1.5258442E1,-2.766739E0,-2.8201305E1,1.2779663E0,-6.6448255E0,3.0178195E-1,-3.783011E-1,5.252004E0,1.3936885E1,-6.6136844E-2,-1.0030645E1,-2.072221E-1,-2.8567026E1,7.0035225E-1,1.5691099E1,2.5595572E0,2.306694E1,2.1339642E-1,-2.7578535E0,6.702962E-1,5.5855317E0,-9.2717014E-2,1.8205571E0,-8.598079E0,3.6887777E0,-5.6371193E0,-1.6121293E0,3.902914E-1,1.6378004E1,-5.551932E0,-9.887741E0,4.2461945E1,-1.2528368E0,9.712176E0,4.888856E0,-1.9843674E0],"categories":[],"categories_nodes":[],"categories_segments":[],"categories_sizes":[],"default_left":[1,1,1,1,1,1,1,1,0,1,1,1,1,1,1,0,0,1,1,1,1,1,1,1,1,1,1,1,1,1,1,1,1,0,1,1,0,1,1,1,1,1,1,1,1,1,1,1,1,1,1,1,1,0,0,0,0,0,0,0,0,0,0,0,0,0,0,0,0,0,0,0,0,0,0,0,0,0,0,0,0,0,0,0,0,0,0,0,0,0,0,0,0,0,0,0,0],"id":16,"left_children":[1,3,5,7,9,11,13,15,-1,17,19,21,23,25,27,-1,-1,29,31,33,35,37,39,41,43,45,47,49,51,53,55,57,59,-1,61,63,-1,65,67,69,71,73,75,77,79,81,83,85,87,89,91,93,95,-1,-1,-1,-1,-1,-1,-1,-1,-1,-1,-1,-1,-1,-1,-1,-1,-1,-1,-1,-1,-1,-1,-1,-1,-1,-1,-1,-1,-1,-1,-1,-1,-1,-1,-1,-1,-1,-1,-1,-1,-1,-1,-1,-1],"loss_changes":[1.3901921E3,8.722125E3,1.1080486E3,1.9148291E3,9.069905E3,1.5408787E3,1.1755697E3,2.8707617E2,0E0,5.6351113E3,1.9548931E3,1.6287701E3,3.7215352E3,8.6261365E2,4.609753E3,0E0,0E0,9.389429E3,2.0586191E2,6.912326E3,6.358341E3,3.527359E3,3.7816118E3,1.2089508E4,5.3000117E3,